{"learner":{"attributes":{"scikit_learn":"{\"_estimator_type\": \"regressor\"}"},"feature_names":[],"feature_types":[],"gradient_booster":{"model":{"gbtree_model_param":{"num_parallel_tree":"1","num_trees":"220"},"iteration_indptr":[0,1,2,3,4,5,6,7,8,9,10,11,12,13,14,15,16,17,18,19,20,21,22,23,24,25,26,27,28,29,30,31,32,33,34,35,36,37,38,39,40,41,42,43,44,45,46,47,48,49,50,51,52,53,54,55,56,57,58,59,60,61,62,63,64,65,66,67,68,69,70,71,72,73,74,75,76,77,78,79,80,81,82,83,84,85,86,87,88,89,90,91,92,93,94,95,96,97,98,99,100,101,102,103,104,105,106,107,108,109,110,111,112,113,114,115,116,117,118,119,120,121,122,123,124,125,126,127,128,129,130,131,132,133,134,135,136,137,138,139,140,141,142,143,144,145,146,147,148,149,150,151,152,153,154,155,156,157,158,159,160,161,162,163,164,165,166,167,168,169,170,171,172,173,174,175,176,177,178,179,180,181,182,183,184,185,186,187,188,189,190,191,192,193,194,195,196,197,198,199,200,201,202,203,204,205,206,207,208,209,210,211,212,213,214,215,216,217,218,219,220],"tree_info":[0,0,0,0,0,0,0,0,0,0,0,0,0,0,0,0,0,0,0,0,0,0,0,0,0,0,0,0,0,0,0,0,0,0,0,0,0,0,0,0,0,0,0,0,0,0,0,0,0,0,0,0,0,0,0,0,0,0,0,0,0,0,0,0,0,0,0,0,0,0,0,0,0,0,0,0,0,0,0,0,0,0,0,0,0,0,0,0,0,0,0,0,0,0,0,0,0,0,0,0,0,0,0,0,0,0,0,0,0,0,0,0,0,0,0,0,0,0,0,0,0,0,0,0,0,0,0,0,0,0,0,0,0,0,0,0,0,0,0,0,0,0,0,0,0,0,0,0,0,0,0,0,0,0,0,0,0,0,0,0,0,0,0,0,0,0,0,0,0,0,0,0,0,0,0,0,0,0,0,0,0,0,0,0,0,0,0,0,0,0,0,0,0,0,0,0,0,0,0,0,0,0,0,0,0,0,0,0,0,0,0,0,0,0,0,0,0,0,0,0],"trees":[{"base_weights":[-7.7315937E-3,-3.922819E-1,2.3559326E-1,-2.505053E-1,-5.990262E-1,9.025691E-2,6.513578E-1,-4.2278585E-1,-8.061363E-2,-6.594896E-1,-6.254207E-3,1.8769483E-1,-2.4037252E-1,-9.465936E-2,7.1640414E-1,-1.6864998E-2,-6.789479E-2,7.8925695E-3,-1.7227153E-1,1.1340686E-3,-6.79225E-1,-7.739332E-2,2.9099077E-1,-3.5945186E-1,2.034619E-2,5.086714E-3,-1.0137791E-2,7.556574E-1,-7.89697E-4,1.7577672E-3,-5.435044E-3,1.1083435E-3,-2.1343726E-1,-6.9313204E-1,-4.8149587E-4,8.523429E-3,-2.1304895E-1,4.9049872E-1,1.2105422E-1,-1.3308147E-2,-1.3756765E-3,-5.973002E-3,1.502955E-1,3.142375E-2,7.986148E-1,-7.2706267E-3,1.1507866E-3,-2.2248164E-2,-2.4274741E-4,-2.5181544E-1,1.422168E-3,2.047858E-1,2.0057978E-2,-2.7068716E-2,2.701122E-1,-2.2426613E-3,6.5731825E-3,-4.0759253E-3,6.1459066E-3,2.7758904E-2,9.3545E-3,-9.260982E-3,-1.047257E-3,8.751064E-3,-2.0712866E-3,-5.4775067E-3,2.6888656E-3,1.0478658E-2,-4.2050225E-3],"categories":[],"categories_nodes":[],"categories_segments":[],"categories_sizes":[],"default_left":[0,0,0,0,0,0,0,0,0,0,0,0,0,0,1,0,0,0,0,0,0,0,0,0,0,0,0,0,0,0,0,0,0,0,0,0,0,0,0,0,0,0,0,0,0,0,0,0,0,0,0,0,0,0,1,0,0,0,0,0,0,0,0,0,0,0,0,0,0],"id":0,"left_children":[1,3,5,7,9,11,13,15,17,19,-1,21,23,25,27,-1,29,-1,31,-1,33,35,37,39,41,-1,-1,43,-1,-1,-1,-1,45,47,-1,-1,49,51,53,-1,-1,-1,55,57,59,-1,-1,-1,-1,61,-1,63,-1,65,67,-1,-1,-1,-1,-1,-1,-1,-1,-1,-1,-1,-1,-1,-1],"loss_changes":[6.77027E1,6.8167686E0,2.6240026E1,5.018631E0,1.3980827E0,1.1352787E1,6.132187E0,3.05412E0,3.516199E0,1.4518776E0,0E0,7.530319E0,2.593246E0,1.4682252E0,3.240097E0,0E0,4.8684037E-1,0E0,8.0572176E-1,0E0,7.0848083E-1,4.3947062E0,6.034502E0,8.9055824E-1,1.1933669E0,0E0,0E0,2.887249E0,0E0,0E0,0E0,0E0,3.603475E-1,3.760643E-1,0E0,0E0,7.4817085E-1,2.2704315E0,2.6587524E0,0E0,0E0,0E0,4.6576995E-1,6.285339E-1,1.1789284E0,0E0,0E0,0E0,0E0,4.0888762E-1,0E0,9.758197E-1,0E0,1.229723E0,1.834949E0,0E0,0E0,0E0,0E0,0E0,0E0,0E0,0E0,0E0,0E0,0E0,0E0,0E0,0E0],"parents":[2147483647,0,0,1,1,2,2,3,3,4,4,5,5,6,6,7,7,8,8,9,9,11,11,12,12,13,13,14,14,16,16,18,18,20,20,21,21,22,22,23,23,24,24,27,27,32,32,33,33,36,36,37,37,38,38,42,42,43,43,44,44,49,49,51,51,53,53,54,54],"right_children":[2,4,6,8,10,12,14,16,18,20,-1,22,24,26,28,-1,30,-1,32,-1,34,36,38,40,42,-1,-1,44,-1,-1,-1,-1,46,48,-1,-1,50,52,54,-1,-1,-1,56,58,60,-1,-1,-1,-1,62,-1,64,-1,66,68,-1,-1,-1,-1,-1,-1,-1,-1,-1,-1,-1,-1,-1,-1],"split_conditions":[2E0,6.8E1,3E0,3.7E1,1.06E2,6.8E1,1.2E1,4.9E0,3.9E1,2.834E1,-6.254207E-3,1.3E1,4E0,1.1E1,3.869E1,-1.6864998E-2,4.7E1,7.8925695E-3,3.49443E4,1.1340686E-3,6.4E0,1.1E1,3.9E1,2.019E3,7.2E1,5.086714E-3,-1.0137791E-2,3.49E0,-7.89697E-4,1.7577672E-3,-5.435044E-3,1.1083435E-3,2.9E1,5E0,-4.8149587E-4,8.523429E-3,6.15E0,3.7E1,4E0,-1.3308147E-2,-1.3756765E-3,-5.973002E-3,3E0,3.2E1,8.5E1,-7.2706267E-3,1.1507866E-3,-2.2248164E-2,-2.4274741E-4,2.018E3,1.422168E-3,4.6E1,2.0057978E-2,4.04E0,3.6E1,-2.2426613E-3,6.5731825E-3,-4.0759253E-3,6.1459066E-3,2.7758904E-2,9.3545E-3,-9.260982E-3,-1.047257E-3,8.751064E-3,-2.0712866E-3,-5.4775067E-3,2.6888656E-3,1.0478658E-2,-4.2050225E-3],"split_indices":[14,5,14,5,5,5,5,18,5,22,0,5,13,5,22,0,16,0,23,0,18,5,5,17,5,0,0,18,0,0,0,0,2,13,0,0,18,5,13,0,0,0,2,16,16,0,0,0,0,17,0,16,0,18,22,0,0,0,0,0,0,0,0,0,0,0,0,0,0],"split_type":[0,0,0,0,0,0,0,0,0,0,0,0,0,0,0,0,0,0,0,0,0,0,0,0,0,0,0,0,0,0,0,0,0,0,0,0,0,0,0,0,0,0,0,0,0,0,0,0,0,0,0,0,0,0,0,0,0,0,0,0,0,0,0,0,0,0,0,0,0],"sum_hessian":[7.05E2,2.71E2,4.34E2,1.73E2,9.8E1,3.3E2,1.04E2,7.9E1,9.4E1,8E1,1.8E1,2.58E2,7.2E1,8E0,9.6E1,5.7E1,2.2E1,1.7E1,7.7E1,2E0,7.8E1,7.3E1,1.85E2,4.7E1,2.5E1,5E0,3E0,9.1E1,5E0,1.2E1,1E1,1.3E1,6.4E1,7.6E1,2E0,1.8E1,5.5E1,7.7E1,1.08E2,3.7E1,1E1,8E0,1.7E1,6E0,8.5E1,6.1E1,3E0,7.5E1,1E0,4.8E1,7E0,3.3E1,4.4E1,5.8E1,5E1,3E0,1.4E1,4E0,2E0,6.8E1,1.7E1,3.8E1,1E1,2.6E1,7E0,2.3E1,3.5E1,4.5E1,5E0],"tree_param":{"num_deleted":"0","num_feature":"26","num_nodes":"69","size_leaf_vector":"1"}},{"base_weights":[-1.0758733E-3,-2.3571828E-1,5.415857E-1,-3.8119113E-1,1.6647093E-2,2.114074E-1,7.173135E-1,9.132192E-3,-4.1906774E-1,1.2858418E-1,-1.9912966E-1,-7.36052E-3,2.7068278E-1,7.889598E-2,7.791401E-1,-7.392742E-1,-3.4030613E-1,1.2198983E-2,4.0454146E-2,-3.1246814E-1,3.899216E-2,3.248992E-1,1.907204E-2,-4.2999233E-3,8.230756E-3,8.514106E-1,4.191817E-3,-1.8032771E-3,-8.350956E-1,5.5090426E-3,-3.6105347E-1,9.473952E-3,-5.270253E-3,-3.7940517E-1,2.4363594E-4,4.2859325E-3,-2.227355E-3,1.0867645E-2,-2.4631696E-3,-5.0283945E-3,5.009547E-3,3.252541E-1,9.097194E-1,2.365807E-5,-2.7144011E-2,-4.243624E-1,-1.7068096E-1,-1.3339004E-1,3.379653E-2,-1.3719682E-2,-1.8632556E-3,-2.950406E-3,1.2008804E-2,9.1842186E-1,3.5335214E-4,-3.3976722E-3,-1.4193865E-2,2.4876132E-4,-7.677308E-3,-5.930814E-3,2.7397329E-3,2.4693608E-3,-2.1712526E-3,2.9407654E-2,7.7200733E-4],"categories":[],"categories_nodes":[],"categories_segments":[],"categories_sizes":[],"default_left":[0,0,0,0,0,0,0,0,0,0,0,0,1,0,0,0,0,0,0,0,0,0,0,0,0,0,0,0,0,0,0,0,0,0,0,0,0,0,0,0,0,0,0,0,0,0,0,0,0,0,0,0,0,1,0,0,0,0,0,0,0,0,0,0,0],"id":1,"left_children":[1,3,5,7,9,11,13,-1,15,17,19,-1,21,23,25,27,29,-1,31,33,35,37,39,-1,-1,41,-1,-1,43,-1,45,-1,47,49,-1,-1,-1,-1,-1,-1,-1,51,53,-1,-1,55,57,59,61,-1,-1,-1,-1,63,-1,-1,-1,-1,-1,-1,-1,-1,-1,-1,-1],"loss_changes":[8.998325E1,1.8170515E1,1.0962826E1,9.060108E0,4.8118906E0,2.879138E0,4.768097E0,0E0,5.226948E0,2.7892983E0,1.9578137E0,0E0,1.0516486E0,1.189605E0,4.6732254E0,2.914587E0,3.3377647E0,0E0,1.2798735E0,1.0414047E0,4.057834E-1,7.07634E-1,8.312626E-1,0E0,0E0,5.627136E-1,0E0,0E0,7.266331E-1,0E0,2.3532867E0,0E0,5.4424095E-1,4.261074E-1,0E0,0E0,0E0,0E0,0E0,0E0,0E0,8.8696E-1,6.266937E-1,0E0,0E0,8.5541916E-1,1.0106704E0,4.469376E-1,4.2813626E-1,0E0,0E0,0E0,0E0,3.9334106E-1,0E0,0E0,0E0,0E0,0E0,0E0,0E0,0E0,0E0,0E0,0E0],"parents":[2147483647,0,0,1,1,2,2,3,3,4,4,5,5,6,6,8,8,9,9,10,10,12,12,13,13,14,14,15,15,16,16,18,18,19,19,20,20,21,21,22,22,25,25,28,28,30,30,32,32,33,33,41,41,42,42,45,45,46,46,47,47,48,48,53,53],"right_children":[2,4,6,8,10,12,14,-1,16,18,20,-1,22,24,26,28,30,-1,32,34,36,38,40,-1,-1,42,-1,-1,44,-1,46,-1,48,50,-1,-1,-1,-1,-1,-1,-1,52,54,-1,-1,56,58,60,62,-1,-1,-1,-1,64,-1,-1,-1,-1,-1,-1,-1,-1,-1,-1,-1],"split_conditions":[2.11E3,1.5E3,2.54E3,2.627E1,6E1,1.903E3,1.3E1,9.132192E-3,1.925E3,2.966E1,1.961E3,-7.36052E-3,3.461E1,1.957E3,6.8E1,3.524E1,4.11735E1,1.2198983E-2,4.118123E1,2.017E3,4.1515636E1,1.27E2,4.170386E1,-4.2999233E-3,8.230756E-3,3.7E1,4.191817E-3,-1.8032771E-3,3.56E0,5.5090426E-3,1.965E3,9.473952E-3,4.122553E1,5.32E0,2.4363594E-4,4.2859325E-3,-2.227355E-3,1.0867645E-2,-2.4631696E-3,-5.0283945E-3,5.009547E-3,3.43E0,2.016E3,2.365807E-5,-2.7144011E-2,2.009E3,1.972E3,1.2E1,2.017E3,-1.3719682E-2,-1.8632556E-3,-2.950406E-3,1.2008804E-2,3.993E1,3.5335214E-4,-3.3976722E-3,-1.4193865E-2,2.4876132E-4,-7.677308E-3,-5.930814E-3,2.7397329E-3,2.4693608E-3,-2.1712526E-3,2.9407654E-2,7.7200733E-4],"split_indices":[15,15,15,22,5,11,5,0,11,22,11,0,22,11,5,22,10,0,10,4,10,16,10,0,0,5,0,0,18,0,11,0,10,18,0,0,0,0,0,0,0,18,11,0,0,17,11,5,4,0,0,0,0,22,0,0,0,0,0,0,0,0,0,0,0],"split_type":[0,0,0,0,0,0,0,0,0,0,0,0,0,0,0,0,0,0,0,0,0,0,0,0,0,0,0,0,0,0,0,0,0,0,0,0,0,0,0,0,0,0,0,0,0,0,0,0,0,0,0,0,0,0,0,0,0,0,0,0,0,0,0,0,0],"sum_hessian":[6.88E2,4.84E2,2.04E2,3.04E2,1.8E2,7.8E1,1.26E2,1.3E1,2.91E2,1.21E2,5.9E1,6E0,7.2E1,1.3E1,1.13E2,4.2E1,2.49E2,2.3E1,9.8E1,3.8E1,2.1E1,5.7E1,1.5E1,7E0,6E0,9.9E1,1.4E1,7E0,3.5E1,7E0,2.42E2,7E0,9.1E1,3E1,8E0,1E1,1.1E1,5.6E1,1E0,6E0,9E0,1.6E1,8.3E1,1E0,3.4E1,1.73E2,6.9E1,1.6E1,7.5E1,2.3E1,7E0,1E0,1.5E1,8.2E1,1E0,1.5E1,1.58E2,2.2E1,4.7E1,1.4E1,2E0,5.4E1,2.1E1,8.1E1,1E0],"tree_param":{"num_deleted":"0","num_feature":"26","num_nodes":"65","size_leaf_vector":"1"}},{"base_weights":[-2.1856688E-3,-2.3789312E-1,5.724067E-1,-3.3737674E-1,3.8130507E-1,2.647973E-2,3.6908478E-1,-5.2235997E-1,-1.90752E-1,-3.5063485E-3,4.477209E-1,4.169459E-1,-1.14424475E-1,-7.927154E-3,-5.9608227E-1,-1.0227317E-1,-3.245559E-1,3.2217868E-3,5.131614E-1,2.1558642E-1,5.2262336E-1,-7.0726313E-3,1.5670132E-3,-6.55377E-4,-6.199961E-1,-2.7029133E-1,3.1077404E-2,-4.48308E-1,-6.9716494E-3,1.7570278E-2,2.3754428E-3,2.6558176E-1,-2.056306E-3,7.759508E-4,5.477169E-1,-2.0421518E-2,-1.5202836E-3,-3.0272692E-1,1.3663834E-3,4.4150245E-3,-3.310416E-2,-1.4875012E-2,-1.0664414E-3,-4.8370133E-3,3.1186847E-3,-1.0177727E-3,9.219315E-3,1.8606162E-2,3.6851522E-3,-1.1859926E-2,-3.8047375E-3,3.4425487E-3,-2.0247265E-3],"categories":[],"categories_nodes":[],"categories_segments":[],"categories_sizes":[],"default_left":[0,0,0,0,0,0,0,0,0,0,0,0,0,0,0,0,0,0,0,0,0,0,0,0,0,0,0,0,0,0,0,0,0,0,0,0,0,0,0,0,0,0,0,0,0,0,0,0,0,0,0,0,0],"id":2,"left_children":[1,3,5,7,9,-1,11,13,15,-1,17,19,21,-1,23,25,27,-1,29,31,33,-1,-1,-1,35,37,39,41,43,-1,-1,45,-1,-1,47,-1,-1,49,-1,-1,51,-1,-1,-1,-1,-1,-1,-1,-1,-1,-1,-1,-1],"loss_changes":[9.652664E1,3.2328728E1,8.141106E0,1.1013428E1,2.8884869E0,0E0,3.5305939E0,2.4196625E0,2.7722921E0,0E0,1.0401716E0,1.5730896E0,4.451131E-1,0E0,1.839283E0,3.8946877E0,3.8747005E0,0E0,5.663605E-1,9.779134E-1,8.044033E-1,0E0,0E0,0E0,1.5000725E0,8.9720106E-1,7.5862324E-1,4.4455433E-1,7.098978E-1,0E0,0E0,4.6350813E-1,0E0,0E0,5.209122E-1,0E0,0E0,4.9169874E-1,0E0,0E0,3.7799338E-1,0E0,0E0,0E0,0E0,0E0,0E0,0E0,0E0,0E0,0E0,0E0,0E0],"parents":[2147483647,0,0,1,1,2,2,3,3,4,4,6,6,7,7,8,8,10,10,11,11,12,12,14,14,15,15,16,16,18,18,19,19,20,20,24,24,25,25,26,26,27,27,28,28,31,31,34,34,37,37,40,40],"right_children":[2,4,6,8,10,-1,12,14,16,-1,18,20,22,-1,24,26,28,-1,30,32,34,-1,-1,-1,36,38,40,42,44,-1,-1,46,-1,-1,48,-1,-1,50,-1,-1,52,-1,-1,-1,-1,-1,-1,-1,-1,-1,-1,-1,-1],"split_conditions":[2.11E3,6.716E3,-7.321044E1,1.264E3,1.08E3,2.647973E-2,6.604E3,2.3413E2,6.1E1,-3.5063485E-3,-7.333138E1,2.52E3,6.607E3,-7.927154E-3,1.1E1,-7.291477E1,6.461E3,3.2217868E-3,-7.323352E1,-7.252199E1,6.013E3,-7.0726313E-3,1.5670132E-3,-6.55377E-4,6.611E3,6.37E0,4.7E0,6.4E0,3.88E0,1.7570278E-2,2.3754428E-3,6.013E3,-2.056306E-3,7.759508E-4,6.8E1,-2.0421518E-2,-1.5202836E-3,1.616E3,1.3663834E-3,4.4150245E-3,3.49443E4,-1.4875012E-2,-1.0664414E-3,-4.8370133E-3,3.1186847E-3,-1.0177727E-3,9.219315E-3,1.8606162E-2,3.6851522E-3,-1.1859926E-2,-3.8047375E-3,3.4425487E-3,-2.0247265E-3],"split_indices":[15,8,9,15,15,0,8,19,5,0,9,15,8,0,5,9,8,0,9,9,8,0,0,0,8,18,20,18,18,0,0,8,0,0,5,0,0,15,0,0,23,0,0,0,0,0,0,0,0,0,0,0,0],"split_type":[0,0,0,0,0,0,0,0,0,0,0,0,0,0,0,0,0,0,0,0,0,0,0,0,0,0,0,0,0,0,0,0,0,0,0,0,0,0,0,0,0,0,0,0,0,0,0,0,0,0,0,0,0],"sum_hessian":[6.94E2,4.96E2,1.98E2,4.31E2,6.5E1,7.4E1,1.24E2,1.8E2,2.51E2,7E0,5.8E1,1.14E2,1E1,4.7E1,1.33E2,1.61E2,9E1,1.3E1,4.5E1,4.9E1,6.5E1,4E0,6E0,6E0,1.27E2,6.7E1,9.4E1,6.2E1,2.8E1,3.9E1,6E0,4.2E1,7E0,4E0,6.1E1,1.21E2,6E0,6.1E1,6E0,3.1E1,6.3E1,5.8E1,4E0,1E1,1.8E1,3E0,3.9E1,5.3E1,8E0,3.7E1,2.4E1,7E0,5.6E1],"tree_param":{"num_deleted":"0","num_feature":"26","num_nodes":"53","size_leaf_vector":"1"}},{"base_weights":[1.3490474E-2,7.0834327E-1,-1.5778515E-1,4.502094E-1,9.762431E-1,-4.3282694E-1,5.612149E-2,-4.1668587E-3,4.7692785E-1,1.7027431E-3,3.170629E-2,-1.6506454E-1,-5.0399846E-1,-7.25747E-2,4.309475E-1,1.3134725E-1,1.7191024E-2,-2.2869681E-1,-1.087087E-3,-8.1073904E-1,-4.00747E-1,-1.5837525E-1,7.070466E-2,1.4611961E-2,3.9932324E-4,6.755075E-3,-1.2690588E-3,2.5522378E-3,-8.29076E-3,-5.283263E-4,-8.688421E-1,-4.6004096E-1,-5.0337412E-3,5.1921327E-2,-2.101274E-1,-8.204984E-2,2.144594E-1,1.6816056E-4,-2.8383946E-2,-1.4905204E-2,-5.363893E-4,-9.102758E-2,3.8146873E-3,-2.6863015E-1,7.5038955E-2,-1.7048642E-1,3.2805614E-3,2.7637967E-1,-6.8493797E-3,2.5880532E-3,-5.538842E-3,-1.3479767E-2,-4.178619E-3,-3.3803997E-3,8.5271755E-3,1.6314979E-3,-9.435022E-3,9.514378E-3,-8.6575863E-4],"categories":[],"categories_nodes":[],"categories_segments":[],"categories_sizes":[],"default_left":[0,0,0,0,0,0,0,0,0,0,0,0,0,0,0,0,0,0,0,0,0,0,0,0,0,0,0,0,0,0,0,1,0,0,1,0,0,0,0,0,0,0,0,0,0,0,0,0,0,0,0,0,0,0,0,0,0,0,0],"id":3,"left_children":[1,3,5,7,9,11,13,-1,15,-1,-1,17,19,21,23,25,-1,27,-1,29,31,33,35,-1,-1,-1,-1,-1,-1,-1,37,39,-1,41,43,45,47,-1,-1,-1,-1,49,-1,51,53,55,-1,57,-1,-1,-1,-1,-1,-1,-1,-1,-1,-1,-1],"loss_changes":[8.748442E1,5.949272E0,3.4957718E1,2.00247E0,7.8225327E-1,4.16584E0,1.6708921E1,0E0,1.3210716E0,0E0,0E0,4.958719E-1,3.3132324E0,3.3171363E0,1.0201569E0,4.4604385E-1,0E0,6.3836575E-1,0E0,1.7721539E0,1.7379112E0,1.9120235E0,2.4551992E0,0E0,0E0,0E0,0E0,0E0,0E0,0E0,8.730602E-1,4.5763206E-1,0E0,4.95029E-1,2.4458055E0,1.1039257E0,2.0562284E0,0E0,0E0,0E0,0E0,3.9611232E-1,0E0,1.9199028E0,1.3310734E0,1.3307486E0,0E0,4.5106506E-1,0E0,0E0,0E0,0E0,0E0,0E0,0E0,0E0,0E0,0E0,0E0],"parents":[2147483647,0,0,1,1,2,2,3,3,4,4,5,5,6,6,8,8,11,11,12,12,13,13,14,14,15,15,17,17,19,19,20,20,21,21,22,22,30,30,31,31,33,33,34,34,35,35,36,36,41,41,43,43,44,44,45,45,47,47],"right_children":[2,4,6,8,10,12,14,-1,16,-1,-1,18,20,22,24,26,-1,28,-1,30,32,34,36,-1,-1,-1,-1,-1,-1,-1,38,40,-1,42,44,46,48,-1,-1,-1,-1,50,-1,52,54,56,-1,58,-1,-1,-1,-1,-1,-1,-1,-1,-1,-1,-1],"split_conditions":[-7.322832E1,3E0,2E0,1.86E3,5E0,2.009E3,1.991E3,-4.1668587E-3,-7.336363E1,1.7027431E-3,3.170629E-2,2.3E1,1.925E3,1.964E3,-7.232504E1,1.6893E4,1.7191024E-2,-7.31836E1,-1.087087E-3,1.843E3,1.9E0,2.009E3,1.3E0,1.4611961E-2,3.9932324E-4,6.755075E-3,-1.2690588E-3,2.5522378E-3,-8.29076E-3,-5.283263E-4,-7.3225716E1,2.2187E4,-5.0337412E-3,1.921E3,1.8609E4,2E2,5.11E2,1.6816056E-4,-2.8383946E-2,-1.4905204E-2,-5.363893E-4,3E0,3.8146873E-3,6E1,2.2E1,2.012E3,3.2805614E-3,-7.251469E1,-6.8493797E-3,2.5880532E-3,-5.538842E-3,-1.3479767E-2,-4.178619E-3,-3.3803997E-3,8.5271755E-3,1.6314979E-3,-9.435022E-3,9.514378E-3,-8.6575863E-4],"split_indices":[9,14,14,11,6,4,11,0,9,0,0,2,11,11,9,21,0,9,0,11,12,4,12,0,0,0,0,0,0,0,9,21,0,11,21,6,6,0,0,0,0,2,0,6,2,4,0,9,0,0,0,0,0,0,0,0,0,0,0],"split_type":[0,0,0,0,0,0,0,0,0,0,0,0,0,0,0,0,0,0,0,0,0,0,0,0,0,0,0,0,0,0,0,0,0,0,0,0,0,0,0,0,0,0,0,0,0,0,0,0,0,0,0,0,0,0,0,0,0,0,0],"sum_hessian":[7.17E2,1.36E2,5.81E2,8.2E1,5.4E1,2.5E2,3.31E2,2E0,8E1,2E0,5.2E1,5.9E1,1.91E2,2.52E2,7.9E1,1.7E1,6.3E1,3.5E1,2.4E1,3.2E1,1.59E2,1.57E2,9.5E1,7.3E1,6E0,1E1,7E0,2E0,3.3E1,3E0,2.9E1,1.21E2,3.8E1,3.1E1,1.26E2,4.8E1,4.7E1,1E0,2.8E1,1.18E2,3E0,9E0,2.2E1,1.05E2,2.1E1,3.3E1,1.5E1,4.4E1,3E0,3E0,6E0,4E1,6.5E1,1.3E1,8E0,1.4E1,1.9E1,4.1E1,3E0],"tree_param":{"num_deleted":"0","num_feature":"26","num_nodes":"59","size_leaf_vector":"1"}},{"base_weights":[-6.801238E-3,-2.6217213E-1,4.8940068E-1,3.6285192E-1,-2.9956034E-1,8.9265573E-1,3.2187465E-1,2.4557812E-4,1.2639324E-2,-3.9659402E-1,-8.2410395E-2,9.0452063E-1,3.2484985E-4,1.5514901E-1,4.6780807E-1,5.559197E-3,-4.1685268E-1,5.54459E-3,-1.17821336E-1,2.9115861E-2,3.50021E-4,5.9078326E-3,7.852581E-4,4.9103445E-1,4.8267905E-4,-6.9045173E-3,-4.7276065E-1,-1.6062252E-1,5.2960124E-4,-4.9964624E-4,1.5827155E-2,-1.746261E-2,-1.9860289E-1,-6.213593E-2,-8.406873E-3,2.2988857E-3,-7.7091344E-3,1.9393143E-3,-4.41207E-3],"categories":[],"categories_nodes":[],"categories_segments":[],"categories_sizes":[],"default_left":[0,0,0,0,0,1,0,0,0,0,0,0,0,0,1,0,0,0,0,0,0,0,0,0,0,0,0,0,0,0,0,0,0,0,0,0,0,0,0],"id":4,"left_children":[1,3,5,7,9,11,13,-1,-1,15,17,19,-1,21,23,-1,25,-1,27,-1,-1,-1,-1,29,-1,-1,31,33,-1,-1,-1,-1,35,37,-1,-1,-1,-1,-1],"loss_changes":[9.2220825E1,1.2238815E1,1.4027702E1,3.6136055E-1,9.352463E0,6.186333E-1,3.9293575E0,0E0,0E0,4.320671E0,1.5871065E0,6.230469E-1,0E0,3.6872435E-1,9.43058E-1,0E0,2.4576073E0,0E0,8.328023E-1,0E0,0E0,0E0,0E0,4.079857E-1,0E0,0E0,3.864418E0,9.463465E-1,0E0,0E0,0E0,0E0,9.445169E-1,7.1584296E-1,0E0,0E0,0E0,0E0,0E0],"parents":[2147483647,0,0,1,1,2,2,3,3,4,4,5,5,6,6,9,9,10,10,11,11,13,13,14,14,16,16,18,18,23,23,26,26,27,27,32,32,33,33],"right_children":[2,4,6,8,10,12,14,-1,-1,16,18,20,-1,22,24,-1,26,-1,28,-1,-1,-1,-1,30,-1,-1,32,34,-1,-1,-1,-1,36,38,-1,-1,-1,-1,-1],"split_conditions":[1.934E3,4.11735E1,4.120423E1,9.46E2,1.5E3,3.464E1,2.485E3,2.4557812E-4,1.2639324E-2,2.627E1,2.919E1,6E0,3.2484985E-4,4E0,3.993E1,5.559197E-3,2.011E3,5.54459E-3,4.168099E1,2.9115861E-2,3.50021E-4,5.9078326E-3,7.852581E-4,3E0,4.8267905E-4,-6.9045173E-3,2.65286E2,4.1481674E1,5.2960124E-4,-4.9964624E-4,1.5827155E-2,-1.746261E-2,3.041E1,2.01E3,-8.406873E-3,2.2988857E-3,-7.7091344E-3,1.9393143E-3,-4.41207E-3],"split_indices":[15,10,10,15,15,22,15,0,0,22,22,13,0,3,22,0,0,0,10,0,0,0,0,13,0,0,19,10,0,0,0,0,22,0,0,0,0,0,0],"split_type":[0,0,0,0,0,0,0,0,0,0,0,0,0,0,0,0,0,0,0,0,0,0,0,0,0,0,0,0,0,0,0,0,0,0,0,0,0,0,0],"sum_hessian":[7.09E2,4.71E2,2.38E2,2.2E1,4.49E2,5.8E1,1.8E2,3E0,1.9E1,3.05E2,1.44E2,5.7E1,1E0,9.3E1,8.7E1,8E0,2.97E2,1.3E1,1.31E2,5.6E1,1E0,7.2E1,2.1E1,8.2E1,5E0,7.5E1,2.22E2,9.8E1,3.3E1,1E0,8.1E1,1.66E2,5.6E1,5.8E1,4E1,7E0,4.9E1,2.3E1,3.5E1],"tree_param":{"num_deleted":"0","num_feature":"26","num_nodes":"39","size_leaf_vector":"1"}},{"base_weights":[-6.8192007E-3,5.949334E-1,-1.645625E-1,-3.0511261E-3,6.192811E-1,-3.4829983E-1,1.0372741E-1,7.1083105E-1,2.5075984E-1,-2.4806543E-1,-6.0440254E-1,-2.7707497E-2,3.110734E-1,7.941191E-1,9.4812885E-3,2.748189E-3,1.4613388E-2,-1.4246584E-1,-4.199357E-1,-1.7825295E-1,-7.8282666E-1,3.9439786E-2,-3.5118434E-1,3.3885702E-1,6.312843E-5,3.9092796E-3,8.199822E-1,-2.8586122E-1,-7.0997486E-3,-2.9580947E-3,-1.4084177E-2,-2.7366745E-1,4.373278E-3,-2.564119E-1,-9.2746574E-1,1.4208779E-1,-5.620164E-2,1.8393903E-4,-1.30898105E-2,4.5866568E-2,3.7931162E-1,9.434785E-5,2.634342E-2,-2.655808E-4,-3.518281E-1,1.2839596E-1,-4.409075E-2,-1.14016E-2,-5.3563723E-5,1.1248855E-3,-3.080997E-1,-1.0200689E0,-3.983651E-3,7.223054E-3,-4.0369976E-2,-5.6076185E-3,3.3352442E-2,4.5823287E-3,-3.6260628E-3,1.00215666E-1,1.4275052E-2,-1.3224134E-2,-6.826622E-5,-2.440885E-3,5.682187E-3,-3.6679185E-3,1.3447091E-3,6.882939E-4,-1.1069778E-2,-9.174922E-4,-3.2999773E-2,1.819664E-3,-6.51182E-3,5.1847864E-3,-1.4698544E-3,-6.884479E-4,6.1845495E-3],"categories":[],"categories_nodes":[],"categories_segments":[],"categories_sizes":[],"default_left":[0,0,0,0,0,0,0,0,0,0,0,0,0,0,0,0,0,0,0,0,0,0,0,0,0,0,0,0,0,0,0,0,0,0,0,0,0,0,0,0,0,0,0,0,0,0,0,0,0,0,0,0,0,0,0,0,0,0,0,0,0,0,0,0,0,0,0,0,0,0,0,0,0,0,0,0,0],"id":5,"left_children":[1,3,5,-1,7,9,11,13,15,17,19,21,23,25,-1,-1,-1,27,29,31,33,35,37,39,-1,-1,41,43,45,-1,-1,47,-1,49,51,53,55,-1,-1,57,59,-1,-1,-1,61,63,65,-1,-1,-1,67,69,-1,-1,71,-1,73,-1,-1,75,-1,-1,-1,-1,-1,-1,-1,-1,-1,-1,-1,-1,-1,-1,-1,-1,-1],"loss_changes":[7.0523026E1,3.151497E0,2.9338778E1,0E0,3.4087029E0,7.619812E0,6.793546E0,1.7491302E0,1.1524925E0,4.3118305E0,5.7183914E0,3.5899894E0,8.2095814E-1,6.2610245E-1,0E0,0E0,0E0,3.481437E0,3.6099243E-1,1.5371627E0,2.5269203E0,1.4521917E0,6.3824916E-1,8.84634E-1,0E0,0E0,6.2952805E-1,1.5712109E0,5.6571466E-1,0E0,0E0,7.674129E-1,0E0,4.9897087E-1,2.1731606E0,1.1803563E0,9.098581E-1,0E0,0E0,4.8951197E-1,1.0730371E0,0E0,0E0,0E0,1.5777397E0,3.8038948E-1,5.8437276E-1,0E0,0E0,0E0,3.8127255E-1,4.539833E-1,0E0,0E0,5.9722316E-1,0E0,6.219902E-1,0E0,0E0,3.541358E-1,0E0,0E0,0E0,0E0,0E0,0E0,0E0,0E0,0E0,0E0,0E0,0E0,0E0,0E0,0E0,0E0,0E0],"parents":[2147483647,0,0,1,1,2,2,4,4,5,5,6,6,7,7,8,8,9,9,10,10,11,11,12,12,13,13,17,17,18,18,19,19,20,20,21,21,22,22,23,23,26,26,27,27,28,28,31,31,33,33,34,34,35,35,36,36,39,39,40,40,44,44,45,45,46,46,50,50,51,51,54,54,56,56,59,59],"right_children":[2,4,6,-1,8,10,12,14,16,18,20,22,24,26,-1,-1,-1,28,30,32,34,36,38,40,-1,-1,42,44,46,-1,-1,48,-1,50,52,54,56,-1,-1,58,60,-1,-1,-1,62,64,66,-1,-1,-1,68,70,-1,-1,72,-1,74,-1,-1,76,-1,-1,-1,-1,-1,-1,-1,-1,-1,-1,-1,-1,-1,-1,-1,-1,-1],"split_conditions":[-7.322086E1,1.2E1,1.963E3,-3.0511261E-3,3.9E1,8.9E1,1.991E3,-7.3241516E1,1.995E3,6.8E1,3.2E1,-7.249507E1,-7.232504E1,-7.338421E1,9.4812885E-3,2.748189E-3,1.4613388E-2,-7.292294E1,2.27309E2,-7.278598E1,2.33834E2,4.6E1,2.01E3,1E1,6.312843E-5,3.9092796E-3,2.3E1,2.009E3,1.1E1,-2.9580947E-3,-1.4084177E-2,7.2E1,4.373278E-3,3.3E1,1.925E3,1.29E2,2.9E1,1.8393903E-4,-1.30898105E-2,4.6E1,1.3E1,9.434785E-5,2.634342E-2,-2.655808E-4,5.3E1,1.7057E4,6.2E1,-1.14016E-2,-5.3563723E-5,1.1248855E-3,-7.31836E1,7E0,-3.983651E-3,7.223054E-3,1E1,-5.6076185E-3,4.6E1,4.5823287E-3,-3.6260628E-3,8.6E1,1.4275052E-2,-1.3224134E-2,-6.826622E-5,-2.440885E-3,5.682187E-3,-3.6679185E-3,1.3447091E-3,6.882939E-4,-1.1069778E-2,-9.174922E-4,-3.2999773E-2,1.819664E-3,-6.51182E-3,5.1847864E-3,-1.4698544E-3,-6.884479E-4,6.1845495E-3],"split_indices":[9,5,11,0,5,24,11,9,11,5,16,9,9,9,0,0,0,9,19,9,19,16,4,6,0,0,16,4,5,0,0,5,0,6,11,6,5,0,0,16,5,0,0,0,5,21,24,0,0,0,9,6,0,0,1,0,5,0,0,6,0,0,0,0,0,0,0,0,0,0,0,0,0,0,0,0,0],"split_type":[0,0,0,0,0,0,0,0,0,0,0,0,0,0,0,0,0,0,0,0,0,0,0,0,0,0,0,0,0,0,0,0,0,0,0,0,0,0,0,0,0,0,0,0,0,0,0,0,0,0,0,0,0,0,0,0,0,0,0,0,0,0,0,0,0,0,0,0,0,0,0,0,0,0,0,0,0],"sum_hessian":[7.24E2,1.45E2,5.79E2,4E0,1.41E2,3.42E2,2.37E2,1.06E2,3.5E1,2.59E2,8.3E1,1.5E2,8.7E1,8.1E1,2.5E1,2.7E1,8E0,1.71E2,8.8E1,3E1,5.3E1,1.31E2,1.9E1,7.9E1,8E0,5E0,7.6E1,7.8E1,9.3E1,9E0,7.9E1,2.4E1,6E0,1.7E1,3.6E1,6.1E1,7E1,4E0,1.5E1,1.2E1,6.7E1,1E0,7.5E1,1.7E1,6.1E1,1.5E1,7.8E1,1.6E1,8E0,3E0,1.4E1,3E1,6E0,4E1,2.1E1,2.6E1,4.4E1,8E0,4E0,1.8E1,4.9E1,5E1,1.1E1,2E0,1.3E1,4.1E1,3.7E1,2E0,1.2E1,1E0,2.9E1,1.7E1,4E0,1.3E1,3.1E1,1.1E1,7E0],"tree_param":{"num_deleted":"0","num_feature":"26","num_nodes":"77","size_leaf_vector":"1"}},{"base_weights":[7.30521E-3,-2.2817205E-1,4.9258775E-1,2.7310836E-1,-3.0316973E-1,8.0861175E-1,2.6522547E-1,1.2837161E-2,-2.9682405E-2,-4.2051116E-1,-6.480759E-2,2.9448366E-2,1.2578127E-2,3.0437824E-1,-5.5201985E-3,-4.959323E-3,1.5181911E-3,-3.7047914E-1,-2.589233E-2,4.7025047E-2,-2.5254852E-1,-4.995747E-3,3.2485068E-1,-6.304572E-3,-4.2587546E-1,-2.0509064E-3,1.0795109E-1,2.0923913E-3,-3.008024E-1,1.7641896E-1,4.4706914E-1,-7.5131137E-4,-4.485579E-1,4.7098766E-3,-2.2237832E-3,-1.0385348E-2,9.982418E-4,-2.7958483E-3,2.1817559E-1,-4.4858726E-4,4.6249637E-1,-1.5485676E-2,-4.5959773E-3,8.525049E-3,-2.536981E-3,-1.148346E-3,1.5085234E-2],"categories":[],"categories_nodes":[],"categories_segments":[],"categories_sizes":[],"default_left":[0,0,0,0,0,0,0,0,0,0,0,0,0,0,0,0,0,0,0,0,0,0,0,0,0,0,0,0,0,0,0,0,0,0,0,0,0,0,0,0,0,0,0,0,0,0,0],"id":6,"left_children":[1,3,5,7,9,11,13,-1,15,17,19,-1,-1,21,-1,-1,-1,23,-1,25,27,-1,29,-1,31,-1,33,-1,35,37,39,-1,41,-1,-1,-1,-1,-1,43,-1,45,-1,-1,-1,-1,-1,-1],"loss_changes":[8.267741E1,1.9093685E1,1.4979729E1,2.822928E0,1.1726025E1,1.1862526E0,3.0947104E0,0E0,3.569744E-1,2.8158264E0,3.3090775E0,0E0,0E0,1.8219023E0,0E0,0E0,0E0,1.7870445E0,0E0,7.675617E-1,1.0811348E0,0E0,1.7916927E0,0E0,1.6922112E0,0E0,6.015659E-1,0E0,5.5048084E-1,1.0441086E0,5.613394E-1,0E0,1.5359573E0,0E0,0E0,0E0,0E0,0E0,1.25248E0,0E0,5.832443E-1,0E0,0E0,0E0,0E0,0E0,0E0],"parents":[2147483647,0,0,1,1,2,2,3,3,4,4,5,5,6,6,8,8,9,9,10,10,13,13,17,17,19,19,20,20,22,22,24,24,26,26,28,28,29,29,30,30,32,32,38,38,40,40],"right_children":[2,4,6,8,10,12,14,-1,16,18,20,-1,-1,22,-1,-1,-1,24,-1,26,28,-1,30,-1,32,-1,34,-1,36,38,40,-1,42,-1,-1,-1,-1,-1,44,-1,46,-1,-1,-1,-1,-1,-1],"split_conditions":[7.626083E0,-7.322832E1,-7.320936E1,4.122384E1,7.3138866E0,3.9E1,5.11E2,1.2837161E-2,7.1204443E0,-7.207417E1,6E1,2.9448366E-2,1.2578127E-2,4.1206654E1,-5.5201985E-3,-4.959323E-3,1.5181911E-3,2.011E3,-2.589233E-2,-7.291477E1,-7.3120445E1,-4.995747E-3,7.852439E0,-6.304572E-3,1.1E1,-2.0509064E-3,8.3E0,2.0923913E-3,9E1,3.5E0,2.722E1,-7.5131137E-4,4.1692608E1,4.7098766E-3,-2.2237832E-3,-1.0385348E-2,9.982418E-4,-2.7958483E-3,8.1E0,-4.4858726E-4,4.122384E1,-1.5485676E-2,-4.5959773E-3,8.525049E-3,-2.536981E-3,-1.148346E-3,1.5085234E-2],"split_indices":[25,9,9,10,25,5,6,0,25,9,5,0,0,10,0,0,0,0,0,9,9,0,25,0,5,0,20,0,5,20,22,0,10,0,0,0,0,0,20,0,10,0,0,0,0,0,0],"split_type":[0,0,0,0,0,0,0,0,0,0,0,0,0,0,0,0,0,0,0,0,0,0,0,0,0,0,0,0,0,0,0,0,0,0,0,0,0,0,0,0,0,0,0,0,0,0,0],"sum_hessian":[7.05E2,4.78E2,2.27E2,5.9E1,4.19E2,8.5E1,1.42E2,3.9E1,2E1,2.76E2,1.43E2,5.7E1,2.8E1,1.33E2,9E0,4E0,1.6E1,2.61E2,1.5E1,9.4E1,4.9E1,3E0,1.3E2,7.4E1,1.87E2,3.3E1,6.1E1,6E0,4.3E1,6.9E1,6.1E1,1.1E1,1.76E2,5.1E1,1E1,4E1,3E0,8E0,6.1E1,2E0,5.9E1,1.51E2,2.5E1,5.3E1,8E0,1E0,5.8E1],"tree_param":{"num_deleted":"0","num_feature":"26","num_nodes":"47","size_leaf_vector":"1"}},{"base_weights":[-7.159367E-3,-1.3081297E-1,5.760848E-1,-3.2654342E-1,4.4414744E-2,-1.2827145E-2,6.5054756E-1,-2.4506477E-1,-5.7219446E-1,1.2976715E-1,-2.1910071E-1,-8.33711E-3,5.257609E-3,7.742915E-1,2.8676465E-1,1.6233419E-1,-2.8927836E-1,-6.8182184E-4,-6.3707614E-1,1.8783714E-1,-2.4696049E-1,3.389155E-2,-3.4148583E-1,-1.793638E-3,2.550547E-2,1.4416563E-2,1.804921E-2,-2.0792137E-3,6.7792526E-3,-4.0964666E-3,-3.470939E-1,-7.1395725E-1,-2.5309732E-3,-4.259684E-2,2.7209952E-1,3.4694928E-3,-3.2028332E-1,6.728075E-3,-2.874681E-3,1.2266765E-3,-3.9395797E-1,4.0128874E-3,-2.609179E-3,-5.149172E-4,-3.673816E-1,1.4222378E-3,-7.388145E-1,5.6616496E-3,-1.438321E-1,1.6755082E-2,1.6409628E-1,-3.7792614E-1,9.759126E-4,-1.314606E-2,4.8813157E-4,-1.2379122E-2,-1.8352908E-3,1.1324E-3,-2.4226919E-2,1.4931428E-3,-5.840188E-3,7.981822E-3,-9.126926E-4,-1.3137713E-2,6.1437057E-4],"categories":[],"categories_nodes":[],"categories_segments":[],"categories_sizes":[],"default_left":[0,0,0,0,0,0,0,0,0,0,0,0,0,0,1,0,0,0,0,0,0,0,0,0,0,0,0,0,0,0,0,0,0,0,0,0,1,0,0,0,0,0,0,0,0,0,0,0,0,0,0,0,0,0,0,0,0,0,0,0,0,0,0,0,0],"id":7,"left_children":[1,3,5,7,9,11,13,15,17,19,21,-1,-1,23,25,27,29,-1,31,33,35,37,39,-1,-1,-1,41,-1,-1,-1,43,45,-1,47,49,-1,51,-1,-1,-1,53,-1,-1,-1,55,-1,57,-1,59,-1,61,63,-1,-1,-1,-1,-1,-1,-1,-1,-1,-1,-1,-1,-1],"loss_changes":[5.2076603E1,2.0553616E1,5.617714E0,4.342556E0,7.515044E0,1.4440964E0,2.984909E0,4.5509815E0,2.1353512E0,5.8873277E0,2.6571486E0,0E0,0E0,2.2887154E0,1.8691714E0,4.6005738E-1,1.522543E0,0E0,1.8831501E0,4.4057045E0,1.3013651E0,9.607959E-1,1.2654614E0,0E0,0E0,0E0,3.824901E-1,0E0,0E0,0E0,9.401531E-1,1.2201691E0,0E0,1.744477E0,3.6973734E0,0E0,7.827184E-1,0E0,0E0,0E0,4.6942377E-1,0E0,0E0,0E0,7.53458E-1,0E0,1.1296253E0,0E0,4.7275412E-1,0E0,2.2248888E0,4.9032402E-1,0E0,0E0,0E0,0E0,0E0,0E0,0E0,0E0,0E0,0E0,0E0,0E0,0E0],"parents":[2147483647,0,0,1,1,2,2,3,3,4,4,5,5,6,6,7,7,8,8,9,9,10,10,13,13,14,14,15,15,16,16,18,18,19,19,20,20,21,21,22,22,26,26,30,30,31,31,33,33,34,34,36,36,40,40,44,44,46,46,48,48,50,50,51,51],"right_children":[2,4,6,8,10,12,14,16,18,20,22,-1,-1,24,26,28,30,-1,32,34,36,38,40,-1,-1,-1,42,-1,-1,-1,44,46,-1,48,50,-1,52,-1,-1,-1,54,-1,-1,-1,56,-1,58,-1,60,-1,62,64,-1,-1,-1,-1,-1,-1,-1,-1,-1,-1,-1,-1,-1],"split_conditions":[3E0,2E0,1.5E1,9E1,6.8E1,4.1210995E1,4.1E1,4.120081E1,2.009E3,8.8E1,4.3E1,-8.33711E-3,5.257609E-3,3.46E0,3.3E1,5.8E1,3.54851E4,-6.8182184E-4,1.01E2,1.5E1,2.64E1,4.1506813E1,4.087E1,-1.793638E-3,2.550547E-2,1.4416563E-2,3E0,-2.0792137E-3,6.7792526E-3,-4.0964666E-3,2.834E1,2.64E1,-2.5309732E-3,1.1E1,4.122553E1,3.4694928E-3,2.729E1,6.728075E-3,-2.874681E-3,1.2266765E-3,2.70643E2,4.0128874E-3,-2.609179E-3,-5.149172E-4,9E1,1.4222378E-3,1.1E1,5.6616496E-3,1.3E1,1.6755082E-2,5.1E1,6.15E0,9.759126E-4,-1.314606E-2,4.8813157E-4,-1.2379122E-2,-1.8352908E-3,1.1324E-3,-2.4226919E-2,1.4931428E-3,-5.840188E-3,7.981822E-3,-9.126926E-4,-1.3137713E-2,6.1437057E-4],"split_indices":[14,14,5,24,5,10,5,10,0,24,24,0,0,18,24,24,23,0,5,5,22,10,22,0,0,0,3,0,0,0,22,22,0,5,10,0,22,0,0,0,19,0,0,0,5,0,5,0,24,0,24,18,0,0,0,0,0,0,0,0,0,0,0,0,0],"split_type":[0,0,0,0,0,0,0,0,0,0,0,0,0,0,0,0,0,0,0,0,0,0,0,0,0,0,0,0,0,0,0,0,0,0,0,0,0,0,0,0,0,0,0,0,0,0,0,0,0,0,0,0,0,0,0,0,0,0,0,0,0,0,0,0,0],"sum_hessian":[7.03E2,5.86E2,1.17E2,2.73E2,3.13E2,1.4E1,1.03E2,2.19E2,5.4E1,2.4E2,7.3E1,4E0,1E1,6.9E1,3.4E1,1.9E1,2E2,7E0,4.7E1,2.12E2,2.8E1,2.6E1,4.7E1,2E0,6.7E1,1.7E1,1.7E1,3E0,1.6E1,6.1E1,1.39E2,3.9E1,8E0,5.8E1,1.54E2,4E0,2.4E1,8E0,1.8E1,6E0,4.1E1,7E0,1E1,9E0,1.3E2,1E0,3.8E1,1.6E1,4.2E1,3.5E1,1.19E2,2E1,4E0,3.9E1,2E0,1.19E2,1.1E1,1E0,3.7E1,7E0,3.5E1,8E1,3.9E1,1.8E1,2E0],"tree_param":{"num_deleted":"0","num_feature":"26","num_nodes":"65","size_leaf_vector":"1"}},{"base_weights":[-9.209776E-3,-2.460557E-1,4.358683E-1,2.620259E-1,-3.25607E-1,7.418097E-1,2.4657746E-1,3.4981513E-1,-2.7434056E-4,-4.3588978E-1,-8.162766E-2,7.604939E-1,1.385086E-3,-1.7717916E-1,3.3667973E-1,3.9900574E-4,1.1904785E-2,-8.7621826E-1,-3.5074264E-1,5.315156E-3,-1.1436832E-1,2.4027217E-3,2.4904765E-2,4.051545E-3,-2.7669913E-1,1.36994E-1,4.5834252E-1,-2.3750914E-3,-9.45254E-1,-4.0125698E-1,-1.8815583E-1,-1.3512313E-1,1.3785603E-3,-3.5647097E-1,3.4779664E-3,1.9069165E-1,-6.0195164E-3,-4.9039477E-4,1.4788897E-2,-3.10675E-2,-2.142064E-3,-4.8776805E-1,-2.4732795E-1,-2.6238063E-1,4.2275624E-5,-3.565176E-2,-6.449469E-3,1.4524707E-3,-1.2866757E-2,-1.5533302E-3,6.958009E-3,2.650255E-3,-1.6056826E-2,3.1404634E-6,-8.550051E-3,3.655352E-4,-9.064493E-3,2.685366E-3,-3.4013947E-3],"categories":[],"categories_nodes":[],"categories_segments":[],"categories_sizes":[],"default_left":[0,0,0,0,0,0,0,0,0,0,0,0,0,0,0,0,0,0,0,0,0,0,0,0,1,0,0,0,0,0,0,0,0,0,0,0,0,0,0,0,0,0,0,0,0,0,0,0,0,0,0,0,0,0,0,0,0,0,0],"id":8,"left_children":[1,3,5,7,9,11,13,15,-1,17,19,21,-1,23,25,-1,-1,27,29,-1,31,-1,-1,-1,33,35,37,-1,39,41,43,45,-1,47,-1,49,-1,-1,-1,-1,-1,51,53,55,-1,57,-1,-1,-1,-1,-1,-1,-1,-1,-1,-1,-1,-1,-1],"loss_changes":[7.777761E1,2.0250742E1,1.3137901E1,1.6993346E0,1.097773E1,9.081154E-1,7.136422E0,4.0519E-1,0E0,7.905258E0,1.3387117E0,9.038849E-1,0E0,1.4310918E0,2.9448414E0,0E0,0E0,1.5719547E0,1.4007835E0,0E0,4.8475266E-1,0E0,0E0,0E0,1.2985864E0,1.5351727E0,3.632145E-1,0E0,4.3097305E-1,1.368967E0,1.1049485E0,7.318938E-1,0E0,7.0704436E-1,0E0,5.3027153E-1,0E0,0E0,0E0,0E0,0E0,1.5110149E0,4.6685076E-1,3.852923E-1,0E0,5.93846E-1,0E0,0E0,0E0,0E0,0E0,0E0,0E0,0E0,0E0,0E0,0E0,0E0,0E0],"parents":[2147483647,0,0,1,1,2,2,3,3,4,4,5,5,6,6,7,7,9,9,10,10,11,11,13,13,14,14,17,17,18,18,20,20,24,24,25,25,26,26,28,28,29,29,30,30,31,31,33,33,35,35,41,41,42,42,43,43,45,45],"right_children":[2,4,6,8,10,12,14,16,-1,18,20,22,-1,24,26,-1,-1,28,30,-1,32,-1,-1,-1,34,36,38,-1,40,42,44,46,-1,48,-1,50,-1,-1,-1,-1,-1,52,54,56,-1,58,-1,-1,-1,-1,-1,-1,-1,-1,-1,-1,-1,-1,-1],"split_conditions":[7.573017E0,-7.322086E1,-7.321698E1,4.1206654E1,7.3138866E0,2.016E3,1.931E3,6.985642E0,-2.7434056E-4,1.918E3,2.919E1,8E0,1.385086E-3,2.009E3,7.7752757E0,3.9900574E-4,1.1904785E-2,3.67E0,7.17549E0,5.315156E-3,4.170953E1,2.4027217E-3,2.4904765E-2,4.051545E-3,2.958E1,5.95E2,2E0,-2.3750914E-3,4.85E0,4.31E0,1.965E3,4.1481674E1,1.3785603E-3,3E1,3.4779664E-3,-7.318559E1,-6.0195164E-3,-4.9039477E-4,1.4788897E-2,-3.10675E-2,-2.142064E-3,2.627E1,3.51E1,4.1207436E1,4.2275624E-5,2.01E3,-6.449469E-3,1.4524707E-3,-1.2866757E-2,-1.5533302E-3,6.958009E-3,2.650255E-3,-1.6056826E-2,3.1404634E-6,-8.550051E-3,3.655352E-4,-9.064493E-3,2.685366E-3,-3.4013947E-3],"split_indices":[25,9,9,10,25,11,11,25,0,11,22,6,0,0,25,0,0,18,25,0,10,0,0,0,22,6,14,0,18,18,11,10,0,16,0,9,0,0,0,0,0,22,22,10,0,17,0,0,0,0,0,0,0,0,0,0,0,0,0],"split_type":[0,0,0,0,0,0,0,0,0,0,0,0,0,0,0,0,0,0,0,0,0,0,0,0,0,0,0,0,0,0,0,0,0,0,0,0,0,0,0,0,0,0,0,0,0,0,0,0,0,0,0,0,0,0,0,0,0,0,0],"sum_hessian":[7.19E2,4.72E2,2.47E2,6.1E1,4.11E2,8.4E1,1.63E2,4.4E1,1.7E1,2.78E2,1.33E2,8.1E1,3E0,2.7E1,1.36E2,4E0,4E1,3.1E1,2.47E2,1.1E1,1.22E2,4E0,7.7E1,6E0,2.1E1,5.9E1,7.7E1,4E0,2.7E1,1.78E2,6.9E1,1.09E2,1.3E1,1.8E1,3E0,5.4E1,5E0,1E0,7.6E1,2.5E1,2E0,1.01E2,7.7E1,4.7E1,2.2E1,5E1,5.9E1,2E0,1.6E1,5E0,4.9E1,2E0,9.9E1,7E0,7E1,4E0,4.3E1,1.8E1,3.2E1],"tree_param":{"num_deleted":"0","num_feature":"26","num_nodes":"59","size_leaf_vector":"1"}},{"base_weights":[6.2789815E-3,-2.02432E-1,4.6647835E-1,3.1574342E-1,-2.881533E-1,7.7471334E-1,2.853518E-1,4.1859427E-1,-2.399163E-2,-4.1839555E-1,-1.23080835E-1,8.409694E-1,6.344521E-3,1.5633576E-2,4.0243345E-1,3.7525343E-3,1.5012527E-2,4.3472564E-3,-4.710626E-3,-2.151067E-2,-3.2907447E-1,-3.632652E-1,-5.703563E-2,2.726196E-2,1.5485736E-3,-1.1203835E-1,3.9617084E-3,2.3403005E-3,1.3645566E-2,-3.6163774E-1,-1.6175134E-3,1.5136309E-3,-5.2172726E-1,1.1087323E-2,-2.0172437E-1,3.2199456E-3,-1.9992788E-1,-7.733773E-3,6.1994796E-3,-1.4081295E-4,-3.809493E-1,-5.7056534E-1,-1.7921967E-3,4.2422116E-2,-6.575931E-3,2.7447895E-3,-8.495699E-3,3.449773E-3,-2.8675738E-1,-2.2515564E-3,-1.2878042E-2,-1.8865038E-2,1.354621E-4,2.571373E-3,-3.3441172E-3,-1.0492415E-2,8.7513664E-4],"categories":[],"categories_nodes":[],"categories_segments":[],"categories_sizes":[],"default_left":[0,0,0,0,0,1,0,0,0,0,0,0,0,0,0,0,0,0,0,0,0,0,0,0,0,0,0,0,0,0,0,0,0,1,0,0,0,0,0,0,0,1,0,0,0,0,0,0,1,0,0,0,0,0,0,0,0],"id":9,"left_children":[1,3,5,7,9,11,13,15,17,19,21,23,-1,25,27,-1,-1,-1,-1,-1,29,31,33,-1,-1,35,-1,37,-1,39,-1,-1,41,43,45,-1,47,-1,-1,-1,49,51,-1,53,-1,-1,-1,-1,55,-1,-1,-1,-1,-1,-1,-1,-1],"loss_changes":[6.9683685E1,2.3028513E1,1.0573257E1,2.7259102E0,8.835861E0,1.4167595E0,4.909647E0,4.2593765E-1,7.158604E-1,3.43005E0,3.0479808E0,5.3183365E-1,0E0,9.288579E-1,1.1784554E0,0E0,0E0,0E0,0E0,0E0,1.5973854E0,2.988318E0,1.7096097E0,0E0,0E0,7.767485E-1,0E0,1.2174642E0,0E0,1.1799088E0,0E0,0E0,4.1160297E-1,9.385092E-1,1.2636659E0,0E0,9.691882E-1,0E0,0E0,0E0,9.790077E-1,3.903532E-1,0E0,7.472352E-1,0E0,0E0,0E0,0E0,3.906777E-1,0E0,0E0,0E0,0E0,0E0,0E0,0E0,0E0],"parents":[2147483647,0,0,1,1,2,2,3,3,4,4,5,5,6,6,7,7,8,8,9,9,10,10,11,11,13,13,14,14,20,20,21,21,22,22,25,25,27,27,29,29,32,32,33,33,34,34,36,36,40,40,41,41,43,43,48,48],"right_children":[2,4,6,8,10,12,14,16,18,20,22,24,-1,26,28,-1,-1,-1,-1,-1,30,32,34,-1,-1,36,-1,38,-1,40,-1,-1,42,44,46,-1,48,-1,-1,-1,50,52,-1,54,-1,-1,-1,-1,56,-1,-1,-1,-1,-1,-1,-1,-1],"split_conditions":[7.6377163E0,-7.3225716E1,-7.3219376E1,4.122384E1,7.235619E0,2.677E1,1.963E3,7.1106963E0,-7.340692E1,1.935E3,1.921E3,2.016E3,6.344521E-3,1.931E3,1.6276E4,3.7525343E-3,1.5012527E-2,4.3472564E-3,-4.710626E-3,-2.151067E-2,4.170293E1,3.2E1,6.8E1,2.726196E-2,1.5485736E-3,2.01E3,3.9617084E-3,1.975E3,1.3645566E-2,1.1E1,-1.6175134E-3,1.5136309E-3,-7.210035E1,3.622E1,4.126294E1,3.2199456E-3,3E1,-7.733773E-3,6.1994796E-3,-1.4081295E-4,-7.319494E1,1.9302E4,-1.7921967E-3,3.91198E4,-6.575931E-3,2.7447895E-3,-8.495699E-3,3.449773E-3,4.087E1,-2.2515564E-3,-1.2878042E-2,-1.8865038E-2,1.354621E-4,2.571373E-3,-3.3441172E-3,-1.0492415E-2,8.7513664E-4],"split_indices":[25,9,9,10,25,22,11,25,9,11,11,11,0,11,21,0,0,0,0,0,10,16,5,0,0,17,0,11,0,5,0,0,9,22,10,0,16,0,0,0,9,21,0,23,0,0,0,0,22,0,0,0,0,0,0,0,0],"split_type":[0,0,0,0,0,0,0,0,0,0,0,0,0,0,0,0,0,0,0,0,0,0,0,0,0,0,0,0,0,0,0,0,0,0,0,0,0,0,0,0,0,0,0,0,0,0,0,0,0,0,0,0,0,0,0,0,0],"sum_hessian":[7.07E2,4.9E2,2.17E2,6.6E1,4.24E2,6.9E1,1.48E2,4.9E1,1.7E1,2.29E2,1.95E2,5.8E1,1.1E1,4.8E1,1E2,1.2E1,3.7E1,7E0,1E1,4.3E1,1.86E2,3.3E1,1.62E2,5.6E1,2E0,2.2E1,2.6E1,7E0,9.3E1,1.64E2,2.2E1,1.1E1,2.2E1,1.16E2,4.6E1,6E0,1.6E1,2E0,5E0,9E0,1.55E2,1.8E1,4E0,1.08E2,8E0,8E0,3.8E1,3E0,1.3E1,1.4E1,1.41E2,1.7E1,1E0,8.9E1,1.9E1,1.1E1,2E0],"tree_param":{"num_deleted":"0","num_feature":"26","num_nodes":"57","size_leaf_vector":"1"}},{"base_weights":[1.00347465E-2,-1.9712543E-1,4.534725E-1,-2.6115137E-1,2.892145E-1,2.9835638E-1,7.6668984E-1,-6.448539E-1,-1.951582E-1,-1.8220791E-3,3.2809824E-1,4.3712795E-1,3.136163E-2,7.860122E-1,4.889951E-4,-1.2586406E-1,-2.6851034E-2,-2.9834953E-1,-3.386883E-2,3.6950356E-1,9.91261E-4,8.080521E-3,1.6604286E-2,1.2033867E-1,-1.3703902E-1,2.5672985E-2,2.2199193E-3,-7.938051E-3,3.4327137E-3,-3.9077038E-1,-1.7788395E-1,-5.0369785E-3,2.015807E-2,1.5324741E-4,1.2441018E-2,-7.9963274E-2,2.1007821E-1,-2.2883284E-1,3.2281815E-3,2.6718946E-3,-4.0439343E-1,-7.6128445E-3,-2.6342444E-4,-1.5266904E-3,8.457259E-2,-7.0405863E-3,1.1340006E-3,2.4101166E-1,-1.8859658E-3,-2.991389E-1,2.9211617E-3,-1.4082872E-2,-4.554933E-3,3.5798876E-3,-2.9489778E-3,-7.6406536E-4,8.6573325E-3,-1.0624677E-2,1.28979E-3],"categories":[],"categories_nodes":[],"categories_segments":[],"categories_sizes":[],"default_left":[0,0,0,0,0,1,0,0,0,0,1,0,0,1,0,0,0,0,0,0,0,0,0,0,0,0,0,0,0,0,0,0,0,0,0,0,0,1,0,0,0,0,0,0,0,0,0,0,0,0,0,0,0,0,0,0,0,0,0],"id":10,"left_children":[1,3,5,7,9,11,13,15,17,-1,19,21,23,25,-1,27,-1,29,31,33,-1,-1,-1,35,37,-1,-1,-1,-1,39,41,-1,43,-1,-1,45,47,49,-1,-1,51,-1,-1,-1,53,-1,-1,55,-1,57,-1,-1,-1,-1,-1,-1,-1,-1,-1],"loss_changes":[6.819975E1,1.647104E1,9.34779E0,1.0279562E1,1.0290637E0,6.2942057E0,9.371033E-1,5.4922104E0,6.552041E0,0E0,6.094594E-1,5.321312E-1,1.192707E0,5.9222794E-1,0E0,1.074066E0,0E0,2.0494099E0,1.1504654E0,3.8917303E-1,0E0,0E0,0E0,1.0614331E0,8.3766836E-1,0E0,0E0,0E0,0E0,1.1540794E0,1.2632148E0,0E0,5.8429027E-1,0E0,0E0,4.397912E-1,4.4467235E-1,7.8288126E-1,0E0,0E0,7.016258E-1,0E0,0E0,0E0,4.33638E-1,0E0,0E0,3.5652137E-1,0E0,3.8287973E-1,0E0,0E0,0E0,0E0,0E0,0E0,0E0,0E0,0E0],"parents":[2147483647,0,0,1,1,2,2,3,3,4,4,5,5,6,6,7,7,8,8,10,10,11,11,12,12,13,13,15,15,17,17,18,18,19,19,23,23,24,24,29,29,30,30,32,32,35,35,36,36,37,37,40,40,44,44,47,47,49,49],"right_children":[2,4,6,8,10,12,14,16,18,-1,20,22,24,26,-1,28,-1,30,32,34,-1,-1,-1,36,38,-1,-1,-1,-1,40,42,-1,44,-1,-1,46,48,50,-1,-1,52,-1,-1,-1,54,-1,-1,56,-1,58,-1,-1,-1,-1,-1,-1,-1,-1,-1],"split_conditions":[2.05E3,6.776E3,6.804E3,1.921E3,1.042E3,4.5E1,2.018E3,3.2E1,1.456E3,-1.8220791E-3,2.729E1,2.571E3,8.6E1,3.172E1,4.889951E-4,1.59E3,-2.6851034E-2,4.28E0,3.87E0,3.65E0,9.91261E-4,8.080521E-3,1.6604286E-2,6.053E3,2.978E3,2.5672985E-2,2.2199193E-3,-7.938051E-3,3.4327137E-3,2.627E1,1.965E3,-5.0369785E-3,1.674E3,1.5324741E-4,1.2441018E-2,3.603E1,3.405E3,4.08E1,3.2281815E-3,2.6718946E-3,1.352E3,-7.6128445E-3,-2.6342444E-4,-1.5266904E-3,9.3E0,-7.0405863E-3,1.1340006E-3,2.636E1,-1.8859658E-3,6.606E3,2.9211617E-3,-1.4082872E-2,-4.554933E-3,3.5798876E-3,-2.9489778E-3,-7.6406536E-4,8.6573325E-3,-1.0624677E-2,1.28979E-3],"split_indices":[15,8,8,11,15,24,11,16,15,0,22,15,24,22,0,15,0,18,18,18,0,0,0,8,15,0,0,0,0,22,11,0,15,0,0,22,15,22,0,0,15,0,0,0,20,0,0,22,0,8,0,0,0,0,0,0,0,0,0],"split_type":[0,0,0,0,0,0,0,0,0,0,0,0,0,0,0,0,0,0,0,0,0,0,0,0,0,0,0,0,0,0,0,0,0,0,0,0,0,0,0,0,0,0,0,0,0,0,0,0,0,0,0,0,0,0,0,0,0,0,0],"sum_hessian":[7.24E2,4.97E2,2.27E2,4.43E2,5.4E1,1.64E2,6.3E1,5.3E1,3.9E2,5E0,4.9E1,1.04E2,6E1,6.1E1,2E0,1.9E1,3.4E1,2.33E2,1.57E2,4.1E1,8E0,4.5E1,5.9E1,4.1E1,1.9E1,5.8E1,3E0,1.2E1,7E0,1.2E2,1.13E2,4.2E1,1.15E2,3E0,3.8E1,1.3E1,2.8E1,1.4E1,5E0,2E0,1.18E2,8E1,3.3E1,5.7E1,5.8E1,2E0,1.1E1,2.6E1,2E0,1.2E1,2E0,9.7E1,2.1E1,5.3E1,5E0,3E0,2.3E1,1.1E1,1E0],"tree_param":{"num_deleted":"0","num_feature":"26","num_nodes":"59","size_leaf_vector":"1"}},{"base_weights":[1.5438888E-4,-1.9142307E-1,4.435074E-1,-2.519334E-1,2.695574E-1,6.962998E-1,2.651771E-1,-4.2090577E-1,-1.21372245E-1,-4.5789224E-3,3.290996E-1,7.112898E-1,4.8625204E-4,1.3377645E-2,1.1021574E-2,-3.2572258E-1,-6.736774E-1,-2.9196633E-2,-2.6695713E-1,1.151439E-2,-1.1070792E-3,8.509004E-3,7.896117E-1,-9.008802E-3,8.16444E-2,6.1880046E-4,-3.455661E-1,1.2776122E-3,-6.99408E-1,-1.6839278E-1,6.326517E-2,-4.1032484E-1,-7.246529E-2,2.55936E-2,1.6096961E-3,1.6357566E-1,-3.7732248E-3,-1.7589545E-1,-4.226802E-1,-7.588603E-1,-2.831955E-3,-7.982348E-3,-7.6177984E-4,3.9335415E-3,-1.2179599E-3,-2.5253554E-4,-4.6591794E-1,2.2590545E-3,-5.141666E-3,6.6227308E-3,-3.634275E-3,-6.85197E-3,-1.5887985E-4,-5.52439E-4,-1.4233096E-2,-2.464558E-2,-4.309153E-4,-1.6359698E-2,-1.3824934E-3],"categories":[],"categories_nodes":[],"categories_segments":[],"categories_sizes":[],"default_left":[0,0,0,0,0,0,1,0,0,0,0,0,0,0,0,0,0,0,0,0,0,0,0,0,0,0,0,0,0,0,0,0,0,0,0,0,0,0,0,0,0,0,0,0,0,0,0,0,0,0,0,0,0,0,0,0,0,0,0],"id":11,"left_children":[1,3,5,7,9,11,13,15,17,-1,19,21,-1,-1,23,25,27,29,31,-1,-1,-1,33,-1,35,-1,37,-1,39,41,43,45,47,-1,-1,49,-1,51,53,55,-1,-1,-1,-1,-1,-1,57,-1,-1,-1,-1,-1,-1,-1,-1,-1,-1,-1,-1],"loss_changes":[6.0615486E1,1.4534117E1,7.984394E0,9.347876E0,1.978056E0,7.4905014E-1,5.559375E0,2.531849E0,3.4744263E0,0E0,8.1470346E-1,8.508873E-1,0E0,0E0,1.5338397E0,1.1336861E0,1.058424E0,2.3173532E0,2.5480485E0,0E0,0E0,0E0,3.8550186E-1,0E0,1.13919E0,0E0,1.2470493E0,0E0,9.045162E-1,7.977817E-1,7.233324E-1,1.2255106E0,8.0486083E-1,0E0,0E0,7.886454E-1,0E0,4.1406763E-1,9.088478E-1,3.7560844E-1,0E0,0E0,0E0,0E0,0E0,0E0,8.1429195E-1,0E0,0E0,0E0,0E0,0E0,0E0,0E0,0E0,0E0,0E0,0E0,0E0],"parents":[2147483647,0,0,1,1,2,2,3,3,4,4,5,5,6,6,7,7,8,8,10,10,11,11,14,14,15,15,16,16,17,17,18,18,22,22,24,24,26,26,28,28,29,29,30,30,31,31,32,32,35,35,37,37,38,38,39,39,46,46],"right_children":[2,4,6,8,10,12,14,16,18,-1,20,22,-1,-1,24,26,28,30,32,-1,-1,-1,34,-1,36,-1,38,-1,40,42,44,46,48,-1,-1,50,-1,52,54,56,-1,-1,-1,-1,-1,-1,58,-1,-1,-1,-1,-1,-1,-1,-1,-1,-1,-1,-1],"split_conditions":[7.6549172E0,6.776E3,-7.321044E1,7.1428275E0,6.9246125E0,2.018E3,4.5E1,8.1E1,6.2E1,-4.5789224E-3,8E1,7.852439E0,4.8625204E-4,1.3377645E-2,1.7358E4,1.1E1,1.1E1,-7.291477E1,1.952E3,1.151439E-2,-1.1070792E-3,8.509004E-3,4.14922E1,-9.008802E-3,8.6E1,6.1880046E-4,2.013E3,1.2776122E-3,4.1680706E1,4.1359467E1,6.6E0,4.1207436E1,4.1384026E1,2.55936E-2,1.6096961E-3,9.2E0,-3.7732248E-3,1.961E3,4.1212685E1,6.611E3,-2.831955E-3,-7.982348E-3,-7.6177984E-4,3.9335415E-3,-1.2179599E-3,-2.5253554E-4,1.1E2,2.2590545E-3,-5.141666E-3,6.6227308E-3,-3.634275E-3,-6.85197E-3,-1.5887985E-4,-5.52439E-4,-1.4233096E-2,-2.464558E-2,-4.309153E-4,-1.6359698E-2,-1.3824934E-3],"split_indices":[25,8,9,25,25,11,24,24,5,0,24,25,0,0,21,5,5,9,11,0,0,0,10,0,24,0,17,0,10,10,20,10,10,0,0,20,0,11,10,8,0,0,0,0,0,0,5,0,0,0,0,0,0,0,0,0,0,0,0],"split_type":[0,0,0,0,0,0,0,0,0,0,0,0,0,0,0,0,0,0,0,0,0,0,0,0,0,0,0,0,0,0,0,0,0,0,0,0,0,0,0,0,0,0,0,0,0,0,0,0,0,0,0,0,0,0,0,0,0,0,0],"sum_hessian":[6.95E2,4.89E2,2.06E2,4.36E2,5.3E1,7.4E1,1.32E2,1.81E2,2.55E2,5E0,4.8E1,7.2E1,2E0,7.8E1,5.4E1,1.47E2,3.4E1,1.63E2,9.2E1,4.4E1,4E0,1.7E1,5.5E1,5E0,4.9E1,8E0,1.39E2,1E0,3.3E1,6.2E1,1.01E2,4.7E1,4.5E1,5.3E1,2E0,3.6E1,1.3E1,5.3E1,8.6E1,2.8E1,5E0,3.5E1,2.7E1,6.2E1,3.9E1,7E0,4E1,1.8E1,2.7E1,3.3E1,3E0,4.1E1,1.2E1,6E0,8E1,2.7E1,1E0,3.4E1,6E0],"tree_param":{"num_deleted":"0","num_feature":"26","num_nodes":"59","size_leaf_vector":"1"}},{"base_weights":[1.6091213E-3,-1.905414E-1,4.1948146E-1,-2.6167348E-1,3.964165E-1,2.7763242E-1,2.2533076E-2,-3.75714E-1,-5.3392727E-2,4.2177542E-4,1.3415443E-2,-6.105946E-2,3.1863198E-1,-1.2294846E-1,-4.217104E-1,4.817288E-3,-8.49442E-2,4.304573E-3,-2.5886026E-1,2.0626643E-1,4.4224855E-1,-5.3655435E-3,1.6304506E-3,-2.1359652E-2,-3.6452454E-1,-2.823692E-1,-3.629909E-2,-1.0497671E-2,2.58041E-3,8.418713E-3,1.7542698E-3,4.7163543E-1,-7.940074E-5,-1.1959496E-2,-7.033114E-4,-3.9393398E-1,1.0011771E-3,-5.7846956E-2,4.496531E-3,1.5587018E-2,-5.2815705E-4,2.7699932E-4,-1.5444983E-2,1.5130006E-3,-3.1102165E-3],"categories":[],"categories_nodes":[],"categories_segments":[],"categories_sizes":[],"default_left":[0,0,0,0,0,0,0,0,0,0,0,0,0,0,0,0,0,0,0,0,0,0,0,0,0,0,0,0,0,0,0,0,0,0,0,0,0,0,0,0,0,0,0,0,0],"id":12,"left_children":[1,3,5,7,9,11,-1,13,15,-1,-1,17,19,21,23,-1,25,-1,27,29,31,-1,-1,-1,33,35,37,-1,-1,-1,-1,39,-1,-1,-1,41,-1,43,-1,-1,-1,-1,-1,-1,-1],"loss_changes":[5.9226643E1,2.2066204E1,7.7163696E0,1.0651789E1,5.2711964E-1,2.5606632E0,0E0,2.9265747E0,1.2351171E0,0E0,0E0,1.3511233E0,1.2925425E0,5.482124E-1,1.2161674E0,0E0,1.3961217E0,0E0,6.483164E-1,7.362728E-1,8.648567E-1,0E0,0E0,0E0,8.2211304E-1,1.1429768E0,5.9505713E-1,0E0,0E0,0E0,0E0,6.473093E-1,0E0,0E0,0E0,8.695152E-1,0E0,5.8166814E-1,0E0,0E0,0E0,0E0,0E0,0E0,0E0],"parents":[2147483647,0,0,1,1,2,2,3,3,4,4,5,5,7,7,8,8,11,11,12,12,13,13,14,14,16,16,18,18,19,19,20,20,24,24,25,25,26,26,31,31,35,35,37,37],"right_children":[2,4,6,8,10,12,-1,14,16,-1,-1,18,20,22,24,-1,26,-1,28,30,32,-1,-1,-1,34,36,38,-1,-1,-1,-1,40,-1,-1,-1,42,-1,44,-1,-1,-1,-1,-1,-1,-1],"split_conditions":[2.05E3,6.824E3,6.804E3,1.488E3,1.08E3,1.7358E4,2.2533076E-2,2.31462E2,1.6E1,4.2177542E-4,1.3415443E-2,6.2E1,2.706E3,2E0,9.36E2,4.817288E-3,3.2E1,4.304573E-3,3E0,1.25E2,6.514E3,-5.3655435E-3,1.6304506E-3,-2.1359652E-2,2.70563E2,4.7E1,6.611E3,-1.0497671E-2,2.58041E-3,8.418713E-3,1.7542698E-3,4.97E2,-7.940074E-5,-1.1959496E-2,-7.033114E-4,2.1E1,1.0011771E-3,6.042E3,4.496531E-3,1.5587018E-2,-5.2815705E-4,2.7699932E-4,-1.5444983E-2,1.5130006E-3,-3.1102165E-3],"split_indices":[15,8,8,15,15,21,0,19,6,0,0,6,15,14,15,0,6,0,14,6,8,0,0,0,19,16,8,0,0,0,0,6,0,0,0,6,0,8,0,0,0,0,0,0,0],"split_type":[0,0,0,0,0,0,0,0,0,0,0,0,0,0,0,0,0,0,0,0,0,0,0,0,0,0,0,0,0,0,0,0,0,0,0,0,0,0,0,0,0,0,0,0,0],"sum_hessian":[7.19E2,4.96E2,2.23E2,4.47E2,4.9E1,1.62E2,6.1E1,2.84E2,1.63E2,4E0,4.5E1,1.7E1,1.45E2,4.9E1,2.35E2,1.7E1,1.46E2,1E1,7E0,8.9E1,5.6E1,3.9E1,1E1,2.5E1,2.1E2,2E1,1.26E2,6E0,1E0,5.9E1,3E1,5.2E1,4E0,2.02E2,8E0,1.3E1,7E0,1.18E2,8E0,5E1,2E0,4E0,9E0,3.2E1,8.6E1],"tree_param":{"num_deleted":"0","num_feature":"26","num_nodes":"45","size_leaf_vector":"1"}},{"base_weights":[1.7215008E-2,-9.975947E-2,6.3180953E-1,1.7003367E-2,-2.0556313E-1,2.0570314E-2,3.1422218E-3,-1.4764085E-1,1.5314898E-1,2.4946434E-2,-2.8103018E-1,1.9899218E-3,-1.8570258E-1,2.1453221E-1,4.4852886E-2,-1.9380577E-1,2.4802436E-1,-1.5685378E-1,-3.8797265E-1,-2.2128983E-1,6.2767975E-4,2.3424533E-1,-1.9626417E-3,-6.618507E-2,1.2461295E-1,-1.3217363E-3,-2.688524E-1,1.1495755E-2,1.6661659E-3,6.387395E-3,-2.4079683E-1,-9.168753E-2,-4.956871E-1,-7.7413837E-3,-9.046431E-4,2.4814282E-1,-9.242332E-4,-1.3689424E-1,1.6609256E-3,-6.172574E-4,6.410936E-3,-9.78217E-3,7.764963E-4,1.309421E-1,-3.4449322E-3,-3.421618E-2,-8.702466E-3,1.2939426E-1,-2.1108858E-1,-5.549728E-1,-5.143028E-4,8.413841E-3,-1.37487805E-5,-6.251502E-3,1.7405172E-3,-1.0014606E-3,7.312394E-3,-4.2878413E-3,2.5391064E-3,-3.82913E-3,6.2579736E-3,-1.1587692E-2,-1.8729223E-4,-1.2577901E-3,-1.8824017E-2],"categories":[],"categories_nodes":[],"categories_segments":[],"categories_sizes":[],"default_left":[0,0,0,0,0,0,0,0,0,0,0,0,0,0,0,0,0,0,0,0,0,1,0,0,0,0,0,0,0,0,0,0,0,0,0,0,0,0,0,0,0,0,0,0,0,0,0,0,0,0,0,0,0,0,0,0,0,0,0,0,0,0,0,0,0],"id":13,"left_children":[1,3,5,7,9,-1,-1,11,13,15,17,-1,19,21,23,25,27,29,31,33,-1,35,-1,37,39,-1,41,-1,-1,43,45,47,49,-1,-1,51,-1,53,-1,-1,-1,-1,-1,55,-1,57,-1,59,61,63,-1,-1,-1,-1,-1,-1,-1,-1,-1,-1,-1,-1,-1,-1,-1],"loss_changes":[5.1870766E1,7.535536E0,3.7229538E-1,6.875814E0,5.620449E0,0E0,0E0,1.2237372E0,1.0225582E0,4.7101355E0,2.6369934E0,0E0,9.206424E-1,7.0334864E-1,7.1754247E-1,4.590572E-1,8.770356E-1,1.7591572E0,3.5119362E0,3.819914E-1,0E0,4.308977E-1,0E0,3.711383E-1,5.4078716E-1,0E0,4.2962575E-1,0E0,0E0,8.8103735E-1,4.904523E-1,1.425065E0,2.4271545E0,0E0,0E0,3.977809E-1,0E0,3.9154607E-1,0E0,0E0,0E0,0E0,0E0,5.407586E-1,0E0,3.5756177E-1,0E0,5.8210266E-1,9.996693E-1,1.3007011E0,0E0,0E0,0E0,0E0,0E0,0E0,0E0,0E0,0E0,0E0,0E0,0E0,0E0,0E0,0E0],"parents":[2147483647,0,0,1,1,2,2,3,3,4,4,7,7,8,8,9,9,10,10,12,12,13,13,14,14,15,15,16,16,17,17,18,18,19,19,21,21,23,23,24,24,26,26,29,29,30,30,31,31,32,32,35,35,37,37,43,43,45,45,47,47,48,48,49,49],"right_children":[2,4,6,8,10,-1,-1,12,14,16,18,-1,20,22,24,26,28,30,32,34,-1,36,-1,38,40,-1,42,-1,-1,44,46,48,50,-1,-1,52,-1,54,-1,-1,-1,-1,-1,56,-1,58,-1,60,62,64,-1,-1,-1,-1,-1,-1,-1,-1,-1,-1,-1,-1,-1,-1,-1],"split_conditions":[6.804E3,4.6E1,4.1456474E1,2.7E1,6.04E3,2.0570314E-2,3.1422218E-3,3.11E1,9.7E1,6.019E3,2.013E3,1.9899218E-3,5.78E0,3.1E1,1.6E1,2.35969E2,1.01E2,4.6E1,3.6E1,4.170293E1,6.2767975E-4,3.993E1,-1.9626417E-3,2.53154E2,6.053E3,-1.3217363E-3,1.05E2,1.1495755E-2,1.6661659E-3,4.1347008E1,4E0,6.413E3,4.56E0,-7.7413837E-3,-9.046431E-4,1.2E1,-9.242332E-4,6.607E3,1.6609256E-3,-6.172574E-4,6.410936E-3,-9.78217E-3,7.764963E-4,1.7E1,-3.4449322E-3,4.7E1,-8.702466E-3,1E1,2.729E1,6.053E3,-5.143028E-4,8.413841E-3,-1.37487805E-5,-6.251502E-3,1.7405172E-3,-1.0014606E-3,7.312394E-3,-4.2878413E-3,2.5391064E-3,-3.82913E-3,6.2579736E-3,-1.1587692E-2,-1.8729223E-4,-1.2577901E-3,-1.8824017E-2],"split_indices":[8,16,10,16,8,0,0,22,6,8,4,0,18,2,2,19,16,6,22,10,0,22,0,19,8,0,16,0,0,10,1,8,18,0,0,1,0,8,0,0,0,0,0,2,0,16,0,6,22,8,0,0,0,0,0,0,0,0,0,0,0,0,0,0,0],"split_type":[0,0,0,0,0,0,0,0,0,0,0,0,0,0,0,0,0,0,0,0,0,0,0,0,0,0,0,0,0,0,0,0,0,0,0,0,0,0,0,0,0,0,0,0,0,0,0,0,0,0,0,0,0,0,0,0,0,0,0,0,0,0,0,0,0],"sum_hessian":[7.04E2,5.98E2,1.06E2,2.88E2,3.1E2,1.01E2,5E0,1.3E2,1.58E2,7.8E1,2.32E2,1.9E1,1.11E2,9.5E1,6.3E1,4E1,3.8E1,1.18E2,1.14E2,9.4E1,1.7E1,9E1,5E0,2.7E1,3.6E1,1.8E1,2.2E1,1.9E1,1.9E1,4.3E1,7.5E1,3.5E1,7.9E1,8.2E1,1.2E1,8.6E1,4E0,1.6E1,1.1E1,1.5E1,2.1E1,1.9E1,3E0,2E1,2.3E1,1.3E1,6.2E1,1.2E1,2.3E1,6.9E1,1E1,8E1,6E0,1.2E1,4E0,1E1,1E1,6E0,7E0,1E0,1.1E1,9E0,1.4E1,6E0,6.3E1],"tree_param":{"num_deleted":"0","num_feature":"26","num_nodes":"65","size_leaf_vector":"1"}},{"base_weights":[3.4226868E-3,-1.9867197E-1,3.5351506E-1,-2.4968828E-1,8.559297E-3,2.0280495E-2,1.7386672E-1,-4.0815243E-1,-1.17795E-1,9.27605E-2,3.5135454E-1,-5.461559E-3,-4.858898E-1,-8.407514E-2,-9.86181E-3,-1.7188342E-1,1.3762455E-1,4.0155318E-1,-2.3125475E-3,-5.441229E-1,-3.7744532E-3,8.106191E-4,-1.4115624E-1,3.83656E-4,-8.742529E-3,-1.3460891E-1,1.6874781E-1,4.2582008E-1,3.3203483E-4,-2.1140917E-1,-5.9843224E-1,-3.76916E-1,-7.249684E-2,3.229824E-3,-9.7632455E-3,2.069576E-1,-2.6487354E-2,6.690257E-5,1.4147008E-2,-8.567312E-3,9.3069725E-4,1.3826366E-3,-1.9373277E-2,3.8849577E-4,-1.3987932E-2,4.264493E-3,-3.3001371E-3,7.067153E-3,-7.4694643E-4,2.1327152E-3,-4.7203456E-3],"categories":[],"categories_nodes":[],"categories_segments":[],"categories_sizes":[],"default_left":[0,0,0,0,0,0,0,0,1,0,0,0,0,0,0,0,0,0,0,0,0,0,0,0,0,0,0,0,0,0,0,0,0,0,0,0,0,0,0,0,0,0,0,0,0,0,0,0,0,0,0],"id":14,"left_children":[1,3,5,7,-1,-1,9,11,13,15,17,-1,19,21,-1,23,25,27,-1,29,-1,-1,31,-1,-1,33,35,37,-1,39,41,43,45,-1,-1,47,49,-1,-1,-1,-1,-1,-1,-1,-1,-1,-1,-1,-1,-1,-1],"loss_changes":[5.0912487E1,1.1526108E1,1.2444519E1,8.252859E0,0E0,0E0,2.205452E0,2.6236172E0,1.3178585E0,1.7918793E0,1.3657146E0,0E0,2.2680569E0,1.3931888E0,0E0,4.7458178E-1,1.214535E0,4.076724E-1,0E0,8.673744E-1,0E0,0E0,2.0813375E0,0E0,0E0,9.9905914E-1,8.7420225E-1,3.585596E-1,0E0,4.9942327E-1,9.279175E-1,7.9917E-1,9.3075234E-1,0E0,0E0,3.8286996E-1,3.9415765E-1,0E0,0E0,0E0,0E0,0E0,0E0,0E0,0E0,0E0,0E0,0E0,0E0,0E0,0E0],"parents":[2147483647,0,0,1,1,2,2,3,3,6,6,7,7,8,8,9,9,10,10,12,12,13,13,15,15,16,16,17,17,19,19,22,22,25,25,26,26,27,27,29,29,30,30,31,31,32,32,35,35,36,36],"right_children":[2,4,6,8,-1,-1,10,12,14,16,18,-1,20,22,-1,24,26,28,-1,30,-1,-1,32,-1,-1,34,36,38,-1,40,42,44,46,-1,-1,48,50,-1,-1,-1,-1,-1,-1,-1,-1,-1,-1,-1,-1,-1,-1],"split_conditions":[7.573017E0,6.804E3,-7.321044E1,7.1428275E0,8.559297E-3,2.0280495E-2,7.987864E0,2.3413E2,3.8E1,1.7358E4,6.604E3,-5.461559E-3,2.019E3,1.25E0,-9.86181E-3,7.741099E0,7.6004024E0,8.2E1,-2.3125475E-3,6.035E3,-3.7744532E-3,8.106191E-4,-7.313663E1,3.83656E-4,-8.742529E-3,3.2E1,-7.252199E1,6.013E3,3.3203483E-4,-7.290054E1,2.627E1,-7.320434E1,-7.297786E1,3.229824E-3,-9.7632455E-3,1.2E1,9E0,6.690257E-5,1.4147008E-2,-8.567312E-3,9.3069725E-4,1.3826366E-3,-1.9373277E-2,3.8849577E-4,-1.3987932E-2,4.264493E-3,-3.3001371E-3,7.067153E-3,-7.4694643E-4,2.1327152E-3,-4.7203456E-3],"split_indices":[25,8,9,25,0,0,25,19,22,21,8,0,17,12,0,25,25,16,0,8,0,0,9,0,0,16,9,8,0,9,22,9,9,0,0,1,1,0,0,0,0,0,0,0,0,0,0,0,0,0,0],"split_type":[0,0,0,0,0,0,0,0,0,0,0,0,0,0,0,0,0,0,0,0,0,0,0,0,0,0,0,0,0,0,0,0,0,0,0,0,0,0,0,0,0,0,0,0,0,0,0,0,0,0,0],"sum_hessian":[7.01E2,4.47E2,2.54E2,4.07E2,4E1,8.9E1,1.65E2,1.76E2,2.31E2,1.23E2,4.2E1,5.1E1,1.25E2,2.08E2,2.3E1,1.4E1,1.09E2,3.8E1,4E0,1.04E2,2.1E1,7.3E1,1.35E2,8E0,6E0,8E0,1.01E2,3.5E1,3E0,2.1E1,8.3E1,2.1E1,1.14E2,5E0,3E0,8.4E1,1.7E1,2E0,3.3E1,1.6E1,5E0,1E0,8.2E1,4E0,1.7E1,1.1E1,1.03E2,7.9E1,5E0,1.2E1,5E0],"tree_param":{"num_deleted":"0","num_feature":"26","num_nodes":"51","size_leaf_vector":"1"}},{"base_weights":[7.1559806E-4,-1.4693248E-1,4.68613E-1,-3.3261526E-1,9.37712E-3,7.277642E-1,3.566375E-1,-2.6091024E-1,-7.14943E-1,8.280436E-2,-3.1731242E-1,2.5358252E-2,4.92254E-3,4.285143E-1,-1.8745935E-2,-2.2479E-4,-3.0699873E-1,-7.7028877E-1,-1.0582766E-3,1.2314333E-2,6.892728E-3,-3.4975868E-1,3.3447195E-3,4.643019E-4,1.3918522E-2,-6.102055E-3,6.288046E-2,-1.7726453E-1,-3.853667E-1,-1.8273069E-3,-2.6263274E-2,1.12780966E-1,-6.2962264E-2,-3.785794E-1,-5.9715257E-4,6.34294E-3,-8.259822E-2,2.6549486E-4,-6.950942E-3,-5.4319636E-3,-4.746881E-1,-1.2788762E-4,7.2101094E-3,2.9550763E-3,-1.0578862E-1,-3.90538E-3,-1.4671133E-2,-5.4483428E-3,4.106632E-3,-1.5871221E-2,-3.9952158E-4,2.4872515E-3,-4.660149E-3],"categories":[],"categories_nodes":[],"categories_segments":[],"categories_sizes":[],"default_left":[0,0,0,0,0,0,1,0,0,0,0,0,0,0,0,0,0,0,0,0,0,0,0,0,0,0,0,0,0,0,0,0,0,0,0,0,0,0,0,0,0,0,0,0,0,0,0,0,0,0,0,0,0],"id":15,"left_children":[1,3,5,7,9,11,13,15,17,19,21,-1,-1,23,25,-1,27,29,-1,-1,31,33,-1,-1,-1,-1,35,37,39,-1,-1,41,43,45,-1,-1,47,-1,-1,-1,49,-1,-1,-1,51,-1,-1,-1,-1,-1,-1,-1,-1],"loss_changes":[4.9922295E1,1.5972873E1,2.6080704E0,5.1496906E0,7.617379E0,5.969696E-1,3.83428E0,2.6275253E0,1.0556717E0,5.953748E0,1.1434727E0,0E0,0E0,4.0972328E-1,5.5605763E-1,0E0,1.307869E0,8.185749E-1,0E0,0E0,1.666415E0,4.7090197E-1,0E0,0E0,0E0,0E0,7.1774954E-1,7.062807E-1,1.3742008E0,0E0,0E0,1.2002162E0,1.0026048E0,5.631275E-1,0E0,0E0,5.89978E-1,0E0,0E0,0E0,7.8746796E-1,0E0,0E0,0E0,9.458864E-1,0E0,0E0,0E0,0E0,0E0,0E0,0E0,0E0],"parents":[2147483647,0,0,1,1,2,2,3,3,4,4,5,5,6,6,7,7,8,8,9,9,10,10,13,13,14,14,16,16,17,17,20,20,21,21,26,26,27,27,28,28,31,31,32,32,33,33,36,36,40,40,44,44],"right_children":[2,4,6,8,10,12,14,16,18,20,22,-1,-1,24,26,-1,28,30,-1,-1,32,34,-1,-1,-1,-1,36,38,40,-1,-1,42,44,46,-1,-1,48,-1,-1,-1,50,-1,-1,-1,52,-1,-1,-1,-1,-1,-1,-1,-1],"split_conditions":[2.36E3,1.364E3,4.1171967E1,9.3E1,8.9E1,2.69E2,6.6E1,4.121242E1,4.1679974E1,4.120423E1,3.1E1,2.5358252E-2,4.92254E-3,3E0,4.1175392E1,-2.2479E-4,2.014E3,2.6E1,-1.0582766E-3,1.2314333E-2,4.4E1,1.61E2,3.3447195E-3,4.643019E-4,1.3918522E-2,-6.102055E-3,8E0,4.2E1,1.9161E4,-1.8273069E-3,-2.6263274E-2,1.916E3,2E1,1E2,-5.9715257E-4,6.34294E-3,4.1651432E1,2.6549486E-4,-6.950942E-3,-5.4319636E-3,1.333E3,-1.2788762E-4,7.2101094E-3,2.9550763E-3,2.01E3,-3.90538E-3,-1.4671133E-2,-5.4483428E-3,4.106632E-3,-1.5871221E-2,-3.9952158E-4,2.4872515E-3,-4.660149E-3],"split_indices":[15,15,10,24,24,24,24,10,10,10,2,0,0,13,10,0,17,6,0,0,24,24,0,0,0,0,1,24,21,0,0,15,6,24,0,0,10,0,0,0,15,0,0,0,17,0,0,0,0,0,0,0,0],"split_type":[0,0,0,0,0,0,0,0,0,0,0,0,0,0,0,0,0,0,0,0,0,0,0,0,0,0,0,0,0,0,0,0,0,0,0,0,0,0,0,0,0,0,0,0,0,0,0,0,0,0,0,0,0],"sum_hessian":[7.04E2,5.4E2,1.64E2,2.42E2,2.98E2,3.4E1,1.3E2,2.17E2,2.5E1,2.49E2,4.9E1,2.7E1,7E0,1.08E2,2.2E1,3.5E1,1.82E2,2.2E1,3E0,4.2E1,2.07E2,4.7E1,2E0,3E0,1.05E2,3E0,1.9E1,8E1,1.02E2,3E0,1.9E1,8E1,1.27E2,4.2E1,5E0,8E0,1.1E1,1.6E1,6.4E1,3.8E1,6.4E1,4.4E1,3.6E1,2.5E1,1.02E2,1.6E1,2.6E1,9E0,2E0,6E1,4E0,1.7E1,8.5E1],"tree_param":{"num_deleted":"0","num_feature":"26","num_nodes":"53","size_leaf_vector":"1"}},{"base_weights":[-1.0580809E-2,-1.8109225E-1,3.663964E-1,-5.67846E-1,-1.13919236E-1,1.9307925E-1,5.336417E-1,2.7331838E-3,-6.095241E-1,-2.1702662E-1,6.496953E-2,2.3113798E-1,-4.8855312E-2,1.362058E-1,6.002434E-1,-3.7530868E-3,-2.250909E-2,5.8828727E-3,-2.3903082E-1,1.1626024E-1,-1.1143617E-1,-1.14538334E-1,2.5486198E-1,-4.154066E-3,2.5040782E-3,2.1542427E-1,-3.10573E-3,6.4726216E-1,3.8113066E-3,-1.6052411E-1,-3.5795277E-1,1.7413962E-1,-2.2697886E-3,-6.1193476E-3,1.2121215E-3,2.017889E-3,-7.1033156E-3,-1.2654916E-3,2.6434714E-1,-2.9604873E-3,8.518805E-3,2.1801915E-2,3.3873708E-3,-2.5181124E-1,-6.977617E-2,-2.8139409E-3,-4.220711E-1,7.005207E-3,-3.651437E-4,9.080484E-3,1.5054253E-3,-3.3596677E-3,-1.2167298E-2,2.6866589E-3,-4.770276E-3,-1.3909243E-2,-3.1437105E-4],"categories":[],"categories_nodes":[],"categories_segments":[],"categories_sizes":[],"default_left":[0,0,0,0,0,1,0,0,0,0,0,0,0,0,0,0,0,0,0,0,0,0,0,0,0,0,0,0,0,0,0,1,0,0,0,0,0,0,0,0,0,0,0,0,0,0,0,0,0,0,0,0,0,0,0,0,0],"id":16,"left_children":[1,3,5,7,9,11,13,-1,15,17,19,21,23,25,27,-1,-1,-1,29,31,33,35,37,-1,-1,39,-1,41,-1,43,45,47,-1,-1,-1,-1,-1,-1,49,-1,-1,-1,-1,51,53,-1,55,-1,-1,-1,-1,-1,-1,-1,-1,-1,-1],"loss_changes":[4.5249924E1,1.197904E1,5.396242E0,2.378828E0,7.958234E0,1.2317505E0,2.0517216E0,0E0,2.4489021E0,2.8145456E0,1.5896463E0,1.1525731E0,3.5070753E-1,7.0311767E-1,1.2699528E0,0E0,0E0,0E0,1.9036894E0,1.5321443E0,5.707231E-1,3.914967E-1,3.8710642E-1,0E0,0E0,6.1314905E-1,0E0,9.729996E-1,0E0,1.2802334E0,1.3148689E0,9.0503407E-1,0E0,0E0,0E0,0E0,0E0,0E0,3.4676838E-1,0E0,0E0,0E0,0E0,1.2191234E0,1.3636756E0,0E0,4.5072365E-1,0E0,0E0,0E0,0E0,0E0,0E0,0E0,0E0,0E0,0E0],"parents":[2147483647,0,0,1,1,2,2,3,3,4,4,5,5,6,6,8,8,9,9,10,10,11,11,12,12,13,13,14,14,18,18,19,19,20,20,21,21,22,22,25,25,27,27,29,29,30,30,31,31,38,38,43,43,44,44,46,46],"right_children":[2,4,6,8,10,12,14,-1,16,18,20,22,24,26,28,-1,-1,-1,30,32,34,36,38,-1,-1,40,-1,42,-1,44,46,48,-1,-1,-1,-1,-1,-1,50,-1,-1,-1,-1,52,54,-1,56,-1,-1,-1,-1,-1,-1,-1,-1,-1,-1],"split_conditions":[2.074E3,1.921E3,2.706E3,2.64E1,1.5E3,8.9E1,3.7E1,2.7331838E-3,2.011E3,2.601E1,6.8E1,3.3E0,2.54E3,8.5E0,6.8E1,-3.7530868E-3,-2.250909E-2,5.8828727E-3,6.8E1,8.3E0,2.018E3,3.2E0,3E0,-4.154066E-3,2.5040782E-3,2.722E1,-3.10573E-3,2.69E2,3.8113066E-3,2.9E1,4E0,2.966E1,-2.2697886E-3,-6.1193476E-3,1.2121215E-3,2.017889E-3,-7.1033156E-3,-1.2654916E-3,6.8E1,-2.9604873E-3,8.518805E-3,2.1801915E-2,3.3873708E-3,5.7E0,4.1E1,-2.8139409E-3,1.1E2,7.005207E-3,-3.651437E-4,9.080484E-3,1.5054253E-3,-3.3596677E-3,-1.2167298E-2,2.6866589E-3,-4.770276E-3,-1.3909243E-2,-3.1437105E-4],"split_indices":[15,11,15,22,15,24,5,0,17,22,5,20,15,20,5,0,0,0,5,20,17,20,13,0,0,22,0,24,0,5,20,22,0,0,0,0,0,0,5,0,0,0,0,20,5,0,5,0,0,0,0,0,0,0,0,0,0],"split_type":[0,0,0,0,0,0,0,0,0,0,0,0,0,0,0,0,0,0,0,0,0,0,0,0,0,0,0,0,0,0,0,0,0,0,0,0,0,0,0,0,0,0,0,0,0,0,0,0,0,0,0,0,0,0,0,0,0],"sum_hessian":[6.85E2,4.75E2,2.1E2,6E1,4.15E2,1.13E2,9.7E1,3E0,5.7E1,2.62E2,1.53E2,9.8E1,1.5E1,1.8E1,7.9E1,1.3E1,4.4E1,1E1,2.52E2,1.21E2,3.2E1,4E0,9.4E1,9E0,6E0,1.4E1,4E0,6.9E1,1E1,1.65E2,8.7E1,9.3E1,2.8E1,1.9E1,1.3E1,3E0,1E0,2E0,9.2E1,1E0,1.3E1,6.2E1,7E0,7.4E1,9.1E1,2.1E1,6.6E1,7.3E1,2E1,8.1E1,1.1E1,4.3E1,3.1E1,3.1E1,6E1,6.3E1,3E0],"tree_param":{"num_deleted":"0","num_feature":"26","num_nodes":"57","size_leaf_vector":"1"}},{"base_weights":[6.925014E-4,-1.424843E-1,4.7781715E-1,-2.1165805E-1,3.0750835E-1,3.1378916E-1,6.966341E-1,-3.3537343E-1,-3.4000933E-2,-1.8200498E-2,4.0369603E-1,3.4368047E-1,7.539457E-4,7.19395E-1,5.6323388E-5,-6.471153E-1,-2.583643E-1,-2.4184217E-1,1.5617388E-2,-4.26232E-3,2.149926E-3,-1.6053648E-3,1.3857434E-2,2.9744306E-3,1.1791264E-2,2.0341722E-3,2.3609288E-2,-6.9118345E-1,-1.4078231E-3,-4.2779407E-1,-2.1317975E-1,2.452547E-3,-2.967996E-1,5.4773968E-2,-5.7386663E-3,-2.2413015E-2,-1.5948672E-4,-1.3874819E-3,-4.9424294E-1,-2.587555E-1,-9.4106376E-2,1.397829E-3,-1.0438188E-2,-1.8325401E-2,5.036646E-3,-1.6595595E-2,-2.1352731E-4,-3.154757E-3,-9.389431E-3,-4.3240846E-3,6.8487733E-4,1.5782925E-3,-2.7625402E-3],"categories":[],"categories_nodes":[],"categories_segments":[],"categories_sizes":[],"default_left":[0,0,0,0,0,0,0,0,0,0,0,0,0,0,0,0,0,0,0,0,0,0,0,0,0,0,0,0,0,0,0,0,0,0,0,0,0,0,0,0,0,0,0,0,0,0,0,0,0,0,0,0,0],"id":17,"left_children":[1,3,5,7,9,11,13,15,17,19,21,23,-1,25,-1,27,29,31,33,-1,-1,-1,-1,-1,-1,-1,-1,35,-1,37,39,-1,41,43,-1,-1,-1,-1,45,47,49,-1,-1,51,-1,-1,-1,-1,-1,-1,-1,-1,-1],"loss_changes":[4.8340424E1,1.7551043E1,3.822647E0,1.0384813E1,2.4599314E0,8.804598E-1,9.7389793E-1,5.1698914E0,2.1630738E0,3.470306E-1,1.0832939E0,3.5944653E-1,0E0,4.996891E-1,0E0,1.0245857E0,9.8895454E-1,9.209914E-1,1.4398745E0,0E0,0E0,0E0,0E0,0E0,0E0,0E0,0E0,4.15514E-1,0E0,8.534808E-1,9.033756E-1,0E0,5.288503E-1,1.1904217E0,0E0,0E0,0E0,0E0,4.3951797E-1,5.797405E-1,3.7897372E-1,0E0,0E0,4.9940053E-1,0E0,0E0,0E0,0E0,0E0,0E0,0E0,0E0,0E0],"parents":[2147483647,0,0,1,1,2,2,3,3,4,4,5,5,6,6,7,7,8,8,9,9,10,10,11,11,13,13,15,15,16,16,17,17,18,18,27,27,29,29,30,30,32,32,33,33,38,38,39,39,40,40,43,43],"right_children":[2,4,6,8,10,12,14,16,18,20,22,24,-1,26,-1,28,30,32,34,-1,-1,-1,-1,-1,-1,-1,-1,36,-1,38,40,-1,42,44,-1,-1,-1,-1,46,48,50,-1,-1,52,-1,-1,-1,-1,-1,-1,-1,-1,-1],"split_conditions":[7.7668405E0,6.776E3,6.804E3,7.3138866E0,7.1300983E0,6.604E3,2.018E3,1.925E3,1.921E3,6.9246125E0,1.92E3,7.812783E0,7.539457E-4,7.8184304E0,5.6323388E-5,4.1680706E1,6.916715E0,1.4E1,3.56E2,-4.26232E-3,2.149926E-3,-1.6053648E-3,1.3857434E-2,2.9744306E-3,1.1791264E-2,2.0341722E-3,2.3609288E-2,6.611E3,-1.4078231E-3,2.31708E2,1.964E3,2.452547E-3,1.843E3,7.573017E0,-5.7386663E-3,-2.2413015E-2,-1.5948672E-4,-1.3874819E-3,3.39E2,1.9302E4,4.1680706E1,1.397829E-3,-1.0438188E-2,4.1515636E1,5.036646E-3,-1.6595595E-2,-2.1352731E-4,-3.154757E-3,-9.389431E-3,-4.3240846E-3,6.8487733E-4,1.5782925E-3,-2.7625402E-3],"split_indices":[25,8,8,25,25,8,11,11,11,25,11,25,0,25,0,10,25,6,6,0,0,0,0,0,0,0,0,8,0,19,11,0,11,25,0,0,0,0,6,21,10,0,0,10,0,0,0,0,0,0,0,0,0],"split_type":[0,0,0,0,0,0,0,0,0,0,0,0,0,0,0,0,0,0,0,0,0,0,0,0,0,0,0,0,0,0,0,0,0,0,0,0,0,0,0,0,0,0,0,0,0,0,0,0,0,0,0,0,0],"sum_hessian":[6.89E2,5.35E2,1.54E2,4.68E2,6.7E1,1.01E2,5.3E1,2.71E2,1.97E2,1.7E1,5E1,9E1,1.1E1,5.1E1,2E0,4E1,2.31E2,3.1E1,1.66E2,5E0,1.2E1,3E0,4.7E1,1.3E1,7.7E1,3E0,4.8E1,3.6E1,4E0,3.2E1,1.99E2,4E0,2.7E1,1.44E2,2.2E1,3.5E1,1E0,7E0,2.5E1,1.36E2,6.3E1,2E0,2.5E1,8.9E1,5.5E1,2.3E1,2E0,3.2E1,1.04E2,4.5E1,1.8E1,4.6E1,4.3E1],"tree_param":{"num_deleted":"0","num_feature":"26","num_nodes":"53","size_leaf_vector":"1"}},{"base_weights":[1.1342707E-2,-1.7367092E-1,3.350681E-1,-2.2585747E-1,2.9133785E-1,2.156968E-1,6.40818E-1,-3.4011394E-1,-1.0355554E-1,1.0025988E-2,-1.727008E-3,-3.8636878E-2,3.2244498E-1,6.5153414E-1,-3.14053E-4,-1.24451265E-1,-4.2309928E-1,-2.027849E-1,-6.1920285E-3,-2.2512855E-1,5.1514138E-2,6.1788694E-3,4.0495223E-1,4.3887165E-3,2.186985E-2,-9.154564E-4,-2.0028386E-1,-4.648815E-1,-2.3281144E-3,-2.719678E-1,-8.0258794E-2,-4.6398062E-2,3.5494347E-3,-1.0357109E-2,3.8063235E-3,1.4257593E-1,-2.509804E-3,1.3280552E-2,5.1091565E-4,-7.659227E-3,8.8829553E-4,1.227576E-3,-4.9539492E-1,-3.767478E-1,-4.372078E-3,-6.208648E-3,1.2746587E-3,2.6219522E-4,-4.9859565E-3,6.344832E-3,-2.909211E-3,-1.7202886E-2,-5.3616087E-3,1.1948724E-4,-1.3286347E-2],"categories":[],"categories_nodes":[],"categories_segments":[],"categories_sizes":[],"default_left":[0,0,0,0,0,0,0,0,0,0,0,0,0,0,0,0,0,0,0,0,0,0,0,0,0,0,0,0,0,0,0,0,0,0,0,0,0,0,0,0,0,0,0,0,0,0,0,0,0,0,0,0,0,0,0],"id":18,"left_children":[1,3,5,7,9,11,13,15,17,-1,-1,19,21,23,-1,25,27,29,31,33,35,-1,37,-1,-1,-1,39,41,-1,43,45,47,-1,-1,-1,49,-1,-1,-1,-1,-1,-1,51,53,-1,-1,-1,-1,-1,-1,-1,-1,-1,-1,-1],"loss_changes":[4.4045525E1,1.1979033E1,8.46727E0,5.628824E0,5.913291E-1,5.718049E0,5.5052376E-1,3.3803291E0,2.1073062E0,0E0,0E0,1.2738245E0,8.0945396E-1,4.2827797E-1,0E0,4.779309E-1,1.908493E0,7.1462107E-1,6.189478E-1,1.2117043E0,7.508908E-1,0E0,3.4788036E-1,0E0,0E0,0E0,4.2957616E-1,2.2425404E0,0E0,4.3566132E-1,7.9894835E-1,5.9420526E-1,0E0,0E0,0E0,6.436861E-1,0E0,0E0,0E0,0E0,0E0,0E0,1.067709E0,5.09809E-1,0E0,0E0,0E0,0E0,0E0,0E0,0E0,0E0,0E0,0E0,0E0],"parents":[2147483647,0,0,1,1,2,2,3,3,4,4,5,5,6,6,7,7,8,8,11,11,12,12,13,13,15,15,16,16,17,17,18,18,19,19,20,20,22,22,26,26,27,27,29,29,30,30,31,31,35,35,42,42,43,43],"right_children":[2,4,6,8,10,12,14,16,18,-1,-1,20,22,24,-1,26,28,30,32,34,36,-1,38,-1,-1,-1,40,42,-1,44,46,48,-1,-1,-1,50,-1,-1,-1,-1,-1,-1,52,54,-1,-1,-1,-1,-1,-1,-1,-1,-1,-1,-1],"split_conditions":[1.934E3,6.804E3,6.824E3,1.306E3,4.122384E1,1.96E3,2.018E3,2.39074E2,1.952E3,1.0025988E-2,-1.727008E-3,1.906E3,2.512E3,1.75E0,-3.14053E-4,4.1529724E1,4.1698326E1,1.616E3,2.64669E2,2.908E3,4.1501225E1,6.1788694E-3,8E1,4.3887165E-3,2.186985E-2,-9.154564E-4,1.967E3,1.1E1,-2.3281144E-3,3E0,6.371E3,6.8E1,3.5494347E-3,-1.0357109E-2,3.8063235E-3,2.89E3,-2.509804E-3,1.3280552E-2,5.1091565E-4,-7.659227E-3,8.8829553E-4,1.227576E-3,2.6595E2,1.3E0,-4.372078E-3,-6.208648E-3,1.2746587E-3,2.6219522E-4,-4.9859565E-3,6.344832E-3,-2.909211E-3,-1.7202886E-2,-5.3616087E-3,1.1948724E-4,-1.3286347E-2],"split_indices":[15,8,8,15,10,11,11,19,11,0,0,11,15,12,0,10,10,15,19,15,10,0,5,0,0,0,11,5,0,3,8,5,0,0,0,15,0,0,0,0,0,0,19,12,0,0,0,0,0,0,0,0,0,0,0],"split_type":[0,0,0,0,0,0,0,0,0,0,0,0,0,0,0,0,0,0,0,0,0,0,0,0,0,0,0,0,0,0,0,0,0,0,0,0,0,0,0,0,0,0,0,0,0,0,0,0,0,0,0,0,0,0,0],"sum_hessian":[7.17E2,4.59E2,2.58E2,4.17E2,4.2E1,1.97E2,6.1E1,2.07E2,2.1E2,4E1,2E0,6E1,1.37E2,6E1,1E0,6.4E1,1.43E2,9.9E1,1.11E2,1.5E1,4.5E1,6.6E1,7.1E1,7E0,5.3E1,3.4E1,3E1,1.25E2,1.8E1,5.6E1,4.3E1,8.7E1,2.4E1,1.2E1,3E0,2.6E1,1.9E1,6.8E1,3E0,2.5E1,5E0,7E0,1.18E2,2.2E1,3.4E1,1.9E1,2.4E1,6.4E1,2.3E1,2.2E1,4E0,9.8E1,2E1,3E0,1.9E1],"tree_param":{"num_deleted":"0","num_feature":"26","num_nodes":"55","size_leaf_vector":"1"}},{"base_weights":[-1.3157581E-2,-1.5774937E-1,3.638893E-1,-5.2779846E-2,-3.7374032E-1,1.2992944E-1,4.904885E-1,-2.1332292E-1,3.7457746E-2,-4.2305124E-1,-1.4152856E-1,1.8477197E-1,-3.8789802E-3,5.099284E-1,2.509692E-4,3.7979453E-3,-2.837786E-1,3.0460986E-1,-6.0720444E-2,-4.2378306E-3,-4.6029627E-1,-1.8758662E-1,1.8030189E-3,7.058758E-3,-5.1643583E-3,5.2177405E-1,3.6046884E-4,-3.5441676E-1,-1.8124995E-3,2.0765013E-3,1.1947795E-2,-1.2804253E-1,2.7627451E-3,-4.904157E-3,-5.0250196E-1,-9.131332E-3,-1.3972628E-3,5.306437E-1,5.7767098E-5,-2.9285937E-3,-4.3017566E-1,8.3442486E-4,-1.9324134E-1,-5.153864E-1,-7.856746E-4,2.1167437E-2,3.5089272E-1,-1.6262035E-3,-1.4935916E-2,1.2171076E-3,-7.732357E-3,6.280825E-4,-1.6618446E-2,-1.4816389E-3,1.2342197E-2],"categories":[],"categories_nodes":[],"categories_segments":[],"categories_sizes":[],"default_left":[0,0,0,0,0,0,0,0,0,0,0,0,0,0,0,0,0,0,0,0,0,0,0,0,0,0,0,0,0,0,0,0,0,0,0,0,0,0,0,0,0,0,0,0,0,0,0,0,0,0,0,0,0,0,0],"id":19,"left_children":[1,3,5,7,9,11,13,15,17,19,21,23,-1,25,-1,-1,27,29,31,-1,33,35,-1,-1,-1,37,-1,39,-1,-1,-1,41,-1,-1,43,-1,-1,45,-1,-1,47,-1,49,51,-1,-1,53,-1,-1,-1,-1,-1,-1,-1,-1],"loss_changes":[3.898874E1,1.1522431E1,5.279751E0,5.2656994E0,1.3573723E0,1.3485835E0,1.1381912E0,3.373361E0,6.397407E0,8.6530685E-1,4.950853E-1,1.2650497E0,0E0,6.554222E-1,0E0,0E0,1.5782385E0,8.88546E-1,1.906931E0,0E0,7.5222015E-1,4.174559E-1,0E0,0E0,0E0,5.321064E-1,0E0,1.2654696E0,0E0,0E0,0E0,1.3384924E0,0E0,0E0,4.740429E-1,0E0,0E0,6.323738E-1,0E0,0E0,7.0593834E-1,0E0,1.148428E0,4.858284E-1,0E0,0E0,1.2071695E0,0E0,0E0,0E0,0E0,0E0,0E0,0E0,0E0],"parents":[2147483647,0,0,1,1,2,2,3,3,4,4,5,5,6,6,7,7,8,8,9,9,10,10,11,11,13,13,16,16,17,17,18,18,20,20,21,21,25,25,27,27,31,31,34,34,37,37,40,40,42,42,43,43,46,46],"right_children":[2,4,6,8,10,12,14,16,18,20,22,24,-1,26,-1,-1,28,30,32,-1,34,36,-1,-1,-1,38,-1,40,-1,-1,-1,42,-1,-1,44,-1,-1,46,-1,-1,48,-1,50,52,-1,-1,54,-1,-1,-1,-1,-1,-1,-1,-1],"split_conditions":[2.15E3,6.8E1,2.54E3,1.3E1,1.06E2,8.8E1,9.4E0,1.1E1,4.120944E1,3.49443E4,1.961E3,1.2E1,-3.8789802E-3,1.05E2,2.509692E-4,3.7979453E-3,1.544E3,1.224E3,1.965E3,-4.2378306E-3,3.8E0,7E0,1.8030189E-3,7.058758E-3,-5.1643583E-3,2.018E3,3.6046884E-4,3.50231E4,-1.8124995E-3,2.0765013E-3,1.1947795E-2,6E0,2.7627451E-3,-4.904157E-3,1.992E3,-9.131332E-3,-1.3972628E-3,4.1280956E1,5.7767098E-5,-2.9285937E-3,3.9E0,8.3442486E-4,3.49443E4,4.1313194E1,-7.856746E-4,2.1167437E-2,4.129887E1,-1.6262035E-3,-1.4935916E-2,1.2171076E-3,-7.732357E-3,6.280825E-4,-1.6618446E-2,-1.4816389E-3,1.2342197E-2],"split_indices":[15,5,15,5,5,24,20,5,10,23,11,1,0,16,0,0,15,15,11,0,20,1,0,0,0,11,0,23,0,0,0,1,0,0,11,0,0,10,0,0,20,0,23,10,0,0,10,0,0,0,0,0,0,0,0],"split_type":[0,0,0,0,0,0,0,0,0,0,0,0,0,0,0,0,0,0,0,0,0,0,0,0,0,0,0,0,0,0,0,0,0,0,0,0,0,0,0,0,0,0,0,0,0,0,0,0,0,0,0,0,0,0,0],"sum_hessian":[6.96E2,5.07E2,1.89E2,3.49E2,1.58E2,7.3E1,1.16E2,1.21E2,2.28E2,1.24E2,3.4E1,6.2E1,1.1E1,1.11E2,5E0,2E1,1.01E2,5.6E1,1.72E2,1.9E1,1.05E2,2.8E1,6E0,5.9E1,3E0,1.08E2,3E0,7.3E1,2.8E1,1.7E1,3.9E1,1.19E2,5.3E1,1.8E1,8.7E1,1.1E1,1.7E1,1.06E2,2E0,2.1E1,5.2E1,3.7E1,8.2E1,8.4E1,3E0,4.6E1,6E1,7E0,4.5E1,1.5E1,6.7E1,1E0,8.3E1,5E0,5.5E1],"tree_param":{"num_deleted":"0","num_feature":"26","num_nodes":"55","size_leaf_vector":"1"}},{"base_weights":[1.8200628E-2,-1.6269222E-1,3.356419E-1,-2.1531E-1,2.9133755E-1,2.101052E-1,2.0524722E-2,-3.0615115E-1,-2.463391E-2,2.368172E-3,1.1372344E-2,1.21926576E-1,4.094056E-1,-1.1930442E-1,-3.613089E-1,3.0741224E-2,-1.2969269E-1,1.7706929E-1,-6.560755E-2,1.46988435E-2,9.845104E-4,-5.0588935E-3,2.6728965E-5,-6.045937E-1,-3.0283582E-1,3.6276E-3,-3.694659E-4,1.969114E-3,-4.985744E-3,-9.234927E-3,2.1614417E-1,-2.2517718E-1,3.5306206E-3,-3.4463243E-3,-2.1487352E-2,-1.2956448E-2,-2.1601532E-1,5.0344756E-3,-7.0003388E-3,7.3832953E-3,-2.499491E-3,-9.675841E-3,1.8913039E-3,1.9928887E-3,-7.375477E-3],"categories":[],"categories_nodes":[],"categories_segments":[],"categories_sizes":[],"default_left":[0,0,0,0,0,0,0,0,0,0,0,0,0,0,0,0,0,0,0,0,0,0,0,0,0,0,0,0,0,0,0,0,0,0,0,0,0,0,0,0,0,0,0,0,0],"id":20,"left_children":[1,3,5,7,9,11,-1,13,15,-1,-1,17,19,21,23,25,27,29,31,-1,-1,-1,-1,33,35,-1,-1,-1,-1,37,39,41,-1,-1,-1,-1,43,-1,-1,-1,-1,-1,-1,-1,-1],"loss_changes":[4.279171E1,1.1940957E1,9.271063E0,7.4008102E0,5.219102E-1,3.1603003E0,0E0,2.6002617E0,9.0595245E-1,0E0,0E0,1.7250309E0,1.0637856E0,3.8691354E-1,1.4259739E0,3.8490012E-1,3.695413E-1,9.1644835E-1,1.4274772E0,0E0,0E0,0E0,0E0,5.0356674E-1,9.686394E-1,0E0,0E0,0E0,0E0,1.4001054E0,6.623249E-1,7.4213934E-1,0E0,0E0,0E0,0E0,7.101836E-1,0E0,0E0,0E0,0E0,0E0,0E0,0E0,0E0],"parents":[2147483647,0,0,1,1,2,2,3,3,4,4,5,5,7,7,8,8,11,11,12,12,13,13,14,14,15,15,16,16,17,17,18,18,23,23,24,24,29,29,30,30,31,31,36,36],"right_children":[2,4,6,8,10,12,-1,14,16,-1,-1,18,20,22,24,26,28,30,32,-1,-1,-1,-1,34,36,-1,-1,-1,-1,38,40,42,-1,-1,-1,-1,44,-1,-1,-1,-1,-1,-1,-1,-1],"split_conditions":[7.573017E0,6.804E3,6.824E3,7.3138866E0,7.1639466E0,7.999343E0,2.0524722E-2,2.35969E2,6.8E1,2.368172E-3,1.1372344E-2,1E1,6.8E1,2E0,6.853299E0,2.009E3,1.5974E4,7.6377163E0,1.4E1,1.46988435E-2,9.845104E-4,-5.0588935E-3,2.6728965E-5,6.09E3,6E0,3.6276E-3,-3.694659E-4,1.969114E-3,-4.985744E-3,3.2E1,1.27E2,6.1E1,3.5306206E-3,-3.4463243E-3,-2.1487352E-2,-1.2956448E-2,1.1E1,5.0344756E-3,-7.0003388E-3,7.3832953E-3,-2.499491E-3,-9.675841E-3,1.8913039E-3,1.9928887E-3,-7.375477E-3],"split_indices":[25,8,8,25,25,25,0,19,5,0,0,1,5,14,25,4,21,25,2,0,0,0,0,8,1,0,0,0,0,16,16,16,0,0,0,0,5,0,0,0,0,0,0,0,0],"split_type":[0,0,0,0,0,0,0,0,0,0,0,0,0,0,0,0,0,0,0,0,0,0,0,0,0,0,0,0,0,0,0,0,0,0,0,0,0,0,0,0,0,0,0,0,0],"sum_hessian":[7.27E2,4.66E2,2.61E2,4.22E2,4.4E1,1.97E2,6.4E1,2.82E2,1.4E2,1.5E1,2.9E1,1.47E2,5E1,7.1E1,2.11E2,9.6E1,4.4E1,1.14E2,3.3E1,4.2E1,8E0,5.1E1,2E1,2.4E1,1.87E2,2.7E1,6.9E1,4E0,4E1,2.1E1,9.3E1,1.6E1,1.7E1,6E0,1.8E1,6.9E1,1.18E2,1.3E1,8E0,9E1,3E0,1.2E1,4E0,5E0,1.13E2],"tree_param":{"num_deleted":"0","num_feature":"26","num_nodes":"45","size_leaf_vector":"1"}},{"base_weights":[-5.688384E-3,4.0281624E-1,-1.0287088E-1,2.333598E-3,4.550314E-1,-1.2160947E-2,-3.096265E-1,5.7879244E-3,1.6068898E-2,9.351486E-2,-2.0706034E-1,-1.05515525E-1,-4.4049734E-1,-1.4996205E-1,1.6113462E-1,-3.4460995E-1,-7.4111044E-2,-9.0183166E-4,-7.274211E-3,-3.6133914E-3,-4.9506417E-1,-1.918012E-1,6.556987E-5,8.543372E-2,2.6902893E-1,-1.1515301E-3,-4.0127605E-1,-2.0424224E-1,3.7943266E-2,-1.6722366E-2,-1.7751334E-3,-7.986462E-3,6.491245E-5,1.8765537E-2,5.0529204E-3,-1.0728188E-1,2.9428592E-1,-5.6460686E-4,-1.4819854E-2,1.1357861E-3,-8.038303E-3,2.2865871E-3,-3.377297E-3,-3.8923717E-3,1.5181358E-3,-7.0372E-3,2.7076371E-3,4.9788447E-5,1.0054052E-2],"categories":[],"categories_nodes":[],"categories_segments":[],"categories_sizes":[],"default_left":[0,0,0,0,0,0,0,0,0,0,0,0,0,0,0,0,0,0,0,0,0,0,0,0,0,0,0,0,0,0,0,0,0,0,0,0,0,0,0,0,0,0,0,0,0,0,0,0,0],"id":21,"left_children":[1,3,5,-1,7,9,11,-1,-1,13,15,17,19,21,23,25,27,-1,-1,-1,29,31,-1,33,35,-1,37,39,41,-1,-1,-1,-1,43,-1,45,47,-1,-1,-1,-1,-1,-1,-1,-1,-1,-1,-1,-1],"loss_changes":[2.8983406E1,2.1013584E0,1.1017635E1,0E0,7.9530525E-1,8.8172655E0,4.3566303E0,0E0,0E0,4.807858E0,2.510816E0,7.234599E-1,1.3703213E0,4.1923952E-1,1.6014738E0,1.1106558E0,1.3603243E0,0E0,0E0,0E0,9.431286E-1,5.9810305E-1,0E0,6.807488E-1,1.1246123E0,0E0,1.4079962E0,5.803968E-1,3.4315848E-1,0E0,0E0,0E0,0E0,4.087603E-1,0E0,4.474584E-1,5.442462E-1,0E0,0E0,0E0,0E0,0E0,0E0,0E0,0E0,0E0,0E0,0E0,0E0],"parents":[2147483647,0,0,1,1,2,2,4,4,5,5,6,6,9,9,10,10,11,11,12,12,13,13,14,14,15,15,16,16,20,20,21,21,23,23,24,24,26,26,27,27,28,28,33,33,35,35,36,36],"right_children":[2,4,6,-1,8,10,12,-1,-1,14,16,18,20,22,24,26,28,-1,-1,-1,30,32,-1,34,36,-1,38,40,42,-1,-1,-1,-1,44,-1,46,48,-1,-1,-1,-1,-1,-1,-1,-1,-1,-1,-1,-1],"split_conditions":[-7.3225716E1,-7.333138E1,6.8E1,2.333598E-3,1.3E0,6.469E3,-7.2790276E1,5.7879244E-3,1.6068898E-2,6.013E3,3.7E1,4.166368E1,2.009E3,1.9E0,4E0,2.009E3,6.515E3,-9.0183166E-4,-7.274211E-3,-3.6133914E-3,4.1698326E1,-7.2907776E1,6.556987E-5,1.8E1,3.3E0,-1.1515301E-3,3.9E0,2.28136E2,-7.289925E1,-1.6722366E-2,-1.7751334E-3,-7.986462E-3,6.491245E-5,2.75E1,5.0529204E-3,4.1700165E1,2.722E1,-5.6460686E-4,-1.4819854E-2,1.1357861E-3,-8.038303E-3,2.2865871E-3,-3.377297E-3,-3.8923717E-3,1.5181358E-3,-7.0372E-3,2.7076371E-3,4.9788447E-5,1.0054052E-2],"split_indices":[9,9,5,0,12,8,9,0,0,8,5,10,0,12,13,0,8,0,0,0,10,9,0,2,20,0,20,19,9,0,0,0,0,22,0,10,22,0,0,0,0,0,0,0,0,0,0,0,0],"split_type":[0,0,0,0,0,0,0,0,0,0,0,0,0,0,0,0,0,0,0,0,0,0,0,0,0,0,0,0,0,0,0,0,0,0,0,0,0,0,0,0,0,0,0,0,0,0,0,0,0],"sum_hessian":[7.11E2,1.31E2,5.8E2,2.1E1,1.1E2,4.1E2,1.7E2,2.4E1,8.6E1,2.69E2,1.41E2,7.3E1,9.7E1,5.6E1,2.13E2,6.2E1,7.9E1,5.2E1,2.1E1,1.8E1,7.9E1,4.2E1,1.4E1,1.35E2,7.8E1,1.2E1,5E1,3.3E1,4.6E1,7.2E1,7E0,3E1,1.2E1,7.7E1,5.8E1,3E0,7.5E1,9E0,4.1E1,6E0,2.7E1,4.1E1,5E0,8E0,6.9E1,1E0,2E0,6E0,6.9E1],"tree_param":{"num_deleted":"0","num_feature":"26","num_nodes":"49","size_leaf_vector":"1"}},{"base_weights":[-7.923017E-3,-1.006496E-1,4.761919E-1,1.0607588E-1,-2.2337463E-1,4.9794725E-1,2.7025647E-3,-6.477559E-2,2.2831134E-1,-1.5950127E-1,-3.9623556E-1,5.1031937E-3,1.7172478E-2,-2.2858748E-1,2.1111047E-2,2.5449812E-1,-6.0810866E-3,-5.0979704E-2,-2.0908453E-1,2.2229643E-3,-4.4585297E-1,-3.9862406E-1,-7.227069E-4,3.7939397E-3,-4.84905E-2,4.7498033E-4,2.8859782E-1,-1.3483512E-1,1.16631E-3,-3.9360162E-2,-2.3715119E-1,-4.9360627E-1,2.6032815E-3,1.284554E-4,-1.4207209E-2,2.15546E-3,-1.3644984E-1,1.0006495E-2,1.6846517E-4,8.0503424E-4,-7.866636E-3,-4.2760153E-3,2.5349155E-3,-3.5972774E-3,-8.655775E-3,-5.1757985E-1,1.0845709E-3,-6.823258E-3,2.5786532E-3,-1.720364E-2,-6.209124E-4],"categories":[],"categories_nodes":[],"categories_segments":[],"categories_sizes":[],"default_left":[0,1,0,0,0,0,0,0,0,0,0,0,0,0,0,0,0,0,0,0,0,0,0,0,0,0,0,0,0,0,0,0,0,0,0,0,0,0,0,0,0,0,0,0,0,0,0,0,0,0,0],"id":22,"left_children":[1,3,5,7,9,11,-1,13,15,17,19,-1,-1,21,23,25,-1,27,29,-1,31,33,-1,-1,35,-1,37,39,-1,41,43,45,-1,-1,-1,-1,47,-1,-1,-1,-1,-1,-1,-1,-1,49,-1,-1,-1,-1,-1],"loss_changes":[3.21995E1,1.5477078E1,5.860157E-1,4.9482393E0,3.6096153E0,7.34499E-1,0E0,1.4988111E0,1.9531598E0,1.4789138E0,2.5195093E0,0E0,0E0,1.1869291E0,5.764381E-1,1.0406656E0,0E0,8.134312E-1,8.5767174E-1,0E0,2.6037998E0,3.955307E-1,0E0,0E0,6.117084E-1,0E0,8.4781075E-1,1.0584823E0,0E0,5.4668915E-1,4.4931602E-1,1.2065487E0,0E0,0E0,0E0,0E0,7.1405876E-1,0E0,0E0,0E0,0E0,0E0,0E0,0E0,0E0,8.5038567E-1,0E0,0E0,0E0,0E0,0E0],"parents":[2147483647,0,0,1,1,2,2,3,3,4,4,5,5,7,7,8,8,9,9,10,10,13,13,14,14,15,15,17,17,18,18,20,20,21,21,24,24,26,26,27,27,29,29,30,30,31,31,36,36,45,45],"right_children":[2,4,6,8,10,12,-1,14,16,18,20,-1,-1,22,24,26,-1,28,30,-1,32,34,-1,-1,36,-1,38,40,-1,42,44,46,-1,-1,-1,-1,48,-1,-1,-1,-1,-1,-1,-1,-1,50,-1,-1,-1,-1,-1],"split_conditions":[6.804E3,4.8E1,2.54E2,1.75E0,8.9E1,2E0,2.7025647E-3,2E0,5.75E2,4.8E0,1.8E1,5.1031937E-3,1.7172478E-2,3.4E1,3.54851E4,2E0,-6.0810866E-3,2E0,2.01E3,2.2229643E-3,1.65E2,7E0,-7.227069E-4,3.7939397E-3,2.014E3,4.7498033E-4,6.517E3,3.54851E4,1.16631E-3,1.3E0,6.053E3,3.1E1,2.6032815E-3,1.284554E-4,-1.4207209E-2,2.15546E-3,1.59E2,1.0006495E-2,1.6846517E-4,8.0503424E-4,-7.866636E-3,-4.2760153E-3,2.5349155E-3,-3.5972774E-3,-8.655775E-3,6.611E3,1.0845709E-3,-6.823258E-3,2.5786532E-3,-1.720364E-2,-6.209124E-4],"split_indices":[8,24,24,12,24,14,0,14,6,20,6,0,0,24,23,14,0,14,17,0,24,2,0,0,17,0,8,23,0,12,8,2,0,0,0,0,6,0,0,0,0,0,0,0,0,8,0,0,0,0,0],"split_type":[0,0,0,0,0,0,0,0,0,0,0,0,0,0,0,0,0,0,0,0,0,0,0,0,0,0,0,0,0,0,0,0,0,0,0,0,0,0,0,0,0,0,0,0,0,0,0,0,0,0,0],"sum_hessian":[6.98E2,5.92E2,1.06E2,2.21E2,3.71E2,9.8E1,8E0,9.4E1,1.27E2,2.84E2,8.7E1,1.6E1,8.2E1,2.7E1,6.7E1,1.23E2,4E0,9.5E1,1.89E2,8E0,7.9E1,1E1,1.7E1,2.5E1,4.2E1,1.7E1,1.06E2,4.6E1,4.9E1,3E1,1.59E2,7.3E1,6E0,2E0,8E0,1.9E1,2.3E1,9.6E1,1E1,2.2E1,2.4E1,1.6E1,1.4E1,4.4E1,1.15E2,7E1,3E0,1.7E1,6E0,6.6E1,4E0],"tree_param":{"num_deleted":"0","num_feature":"26","num_nodes":"51","size_leaf_vector":"1"}},{"base_weights":[7.38093E-3,-1.8417971E-1,2.8027642E-1,-2.3426431E-1,2.3308237E-1,5.221033E-1,1.4247441E-1,-3.843881E-1,-1.4379077E-1,3.1943694E-1,1.2037042E-3,5.325686E-1,-1.628852E-4,-2.1378033E-2,2.5346255E-1,-2.866642E-1,-2.7566098E-2,-2.0061746E-1,-2.7613152E-2,1.1126904E-2,-2.198514E-5,5.492244E-1,2.1982559E-3,1.20118305E-1,-8.747854E-2,1.4113304E-3,9.932747E-3,-3.8271274E-3,-3.3936936E-1,9.434685E-4,-2.3418821E-1,2.5539263E-3,-2.2782115E-3,1.8005716E-2,2.3615404E-3,4.8754965E-3,-2.948125E-3,4.002787E-3,-1.6413361E-1,1.5104688E-3,-3.4817472E-1,-2.5478846E-1,-1.6830667E-3,-2.3735446E-1,8.920034E-4,-1.14215305E-2,-9.323233E-6,-3.7772413E-3,-9.48912E-3,-9.131048E-3,1.2935526E-3],"categories":[],"categories_nodes":[],"categories_segments":[],"categories_sizes":[],"default_left":[0,0,0,0,0,0,0,0,0,1,0,0,0,0,0,0,0,0,0,0,0,0,0,1,0,0,0,0,0,0,0,0,0,0,0,0,0,0,0,0,0,0,0,1,0,0,0,0,0,0,0],"id":23,"left_children":[1,3,5,7,9,11,13,15,17,19,-1,21,-1,23,25,27,-1,29,31,-1,-1,33,-1,35,37,-1,-1,-1,39,-1,41,-1,-1,-1,-1,-1,-1,-1,43,-1,45,47,-1,49,-1,-1,-1,-1,-1,-1,-1],"loss_changes":[3.8712723E1,9.607192E0,9.480837E0,4.8265915E0,7.522471E-1,6.1769104E-1,3.8210063E0,4.403063E0,1.6670108E0,3.4141445E-1,0E0,4.5825768E-1,0E0,9.6161E-1,1.409935E0,7.774973E-1,0E0,1.4050956E0,5.127736E-1,0E0,0E0,4.467697E-1,0E0,3.69765E-1,1.3112457E0,0E0,0E0,0E0,4.792719E-1,0E0,4.4265556E-1,0E0,0E0,0E0,0E0,0E0,0E0,0E0,8.26851E-1,0E0,3.7302208E-1,4.7066498E-1,0E0,6.7119884E-1,0E0,0E0,0E0,0E0,0E0,0E0,0E0],"parents":[2147483647,0,0,1,1,2,2,3,3,4,4,5,5,6,6,7,7,8,8,9,9,11,11,13,13,14,14,15,15,17,17,18,18,21,21,23,23,24,24,28,28,30,30,38,38,40,40,41,41,43,43],"right_children":[2,4,6,8,10,12,14,16,18,20,-1,22,-1,24,26,28,-1,30,32,-1,-1,34,-1,36,38,-1,-1,-1,40,-1,42,-1,-1,-1,-1,-1,-1,-1,44,-1,46,48,-1,50,-1,-1,-1,-1,-1,-1,-1],"split_conditions":[1.728E3,6.804E3,-7.321698E1,1.165E3,6.825E3,2.018E3,1.963E3,-7.20959E1,1.963E3,2.636E1,1.2037042E-3,4.154234E1,-1.628852E-4,4.155E1,2.117E3,2.011E3,-2.7566098E-2,3.61E1,1.9296E4,1.1126904E-2,-2.198514E-5,6.896E3,2.1982559E-3,2.2187E4,2.01E3,1.4113304E-3,9.932747E-3,-3.8271274E-3,2.627E1,9.434685E-4,2.02E3,2.5539263E-3,-2.2782115E-3,1.8005716E-2,2.3615404E-3,4.8754965E-3,-2.948125E-3,4.002787E-3,4.1666252E1,1.5104688E-3,1.18E2,2.011E3,-1.6830667E-3,1.7619E4,8.920034E-4,-1.14215305E-2,-9.323233E-6,-3.7772413E-3,-9.48912E-3,-9.131048E-3,1.2935526E-3],"split_indices":[15,8,9,15,8,11,11,9,11,22,0,10,0,22,15,17,0,22,21,0,0,8,0,21,17,0,0,0,22,0,17,0,0,0,0,0,0,0,10,0,16,17,0,21,0,0,0,0,0,0,0],"split_type":[0,0,0,0,0,0,0,0,0,0,0,0,0,0,0,0,0,0,0,0,0,0,0,0,0,0,0,0,0,0,0,0,0,0,0,0,0,0,0,0,0,0,0,0,0,0,0,0,0,0,0],"sum_hessian":[7.22E2,4.26E2,2.96E2,3.84E2,4.2E1,9.8E1,1.98E2,1.33E2,2.51E2,2.5E1,1.7E1,9.6E1,2E0,8.3E1,1.15E2,1.23E2,1E1,1.64E2,8.7E1,2.2E1,3E0,9.1E1,5E0,2.4E1,5.9E1,2.9E1,8.6E1,3.7E1,8.6E1,2.1E1,1.43E2,2.3E1,6.4E1,8.6E1,5E0,2.3E1,1E0,1.4E1,4.5E1,1E0,8.5E1,1.25E2,1.8E1,3.1E1,1.4E1,8.2E1,3E0,3.9E1,8.6E1,2.6E1,5E0],"tree_param":{"num_deleted":"0","num_feature":"26","num_nodes":"51","size_leaf_vector":"1"}},{"base_weights":[-5.7605007E-3,-1.7806649E-1,2.673902E-1,-2.286297E-1,2.2790393E-1,1.5605329E-1,5.269198E-1,-1.7652614E-1,-5.070832E-1,8.732951E-3,-5.6542375E-4,2.5991946E-1,-1.7616462E-2,5.454156E-1,1.7022359E-3,-2.6607946E-1,-8.5823044E-2,-6.6856724E-1,-1.0059489E-3,3.989662E-3,9.999441E-3,2.1078414E-3,-1.1953057E-1,5.693999E-1,2.305741E-3,-3.4029385E-1,-1.3576774E-1,2.68818E-4,-1.3234326E-1,-7.195034E-1,-1.7200427E-3,1.3282296E-1,-2.248542E-1,1.8785687E-2,1.9483644E-3,-1.3084999E-1,-3.9564037E-1,-1.9323342E-1,-8.2254026E-4,-1.7908467E-1,3.921716E-4,-7.384347E-1,-3.9325532E-5,-1.7681861E-3,6.4668055E-3,-8.793349E-3,2.3234528E-3,-5.707229E-3,2.3978292E-3,-1.4230825E-2,-2.5980887E-3,-5.715498E-4,-8.1926845E-3,-6.488578E-3,-7.45482E-5,-2.346659E-4,-2.4034722E-2],"categories":[],"categories_nodes":[],"categories_segments":[],"categories_sizes":[],"default_left":[0,0,0,0,0,1,0,0,0,0,0,0,0,0,0,0,0,0,0,0,0,0,0,0,0,0,0,0,0,0,0,0,0,0,0,0,0,0,0,1,0,0,0,0,0,0,0,0,0,0,0,0,0,0,0,0,0],"id":24,"left_children":[1,3,5,7,9,11,13,15,17,-1,-1,19,21,23,-1,25,27,29,-1,-1,-1,-1,31,33,-1,35,37,-1,39,41,-1,43,45,-1,-1,47,49,51,-1,53,-1,55,-1,-1,-1,-1,-1,-1,-1,-1,-1,-1,-1,-1,-1,-1,-1],"loss_changes":[3.373513E1,9.504387E0,7.246296E0,4.900408E0,6.61875E-1,3.7826385E0,4.2178726E-1,2.6082125E0,4.2038145E0,0E0,0E0,5.918188E-1,8.128506E-1,4.6862602E-1,0E0,1.2161865E0,8.277341E-1,9.612503E-1,0E0,0E0,0E0,0E0,1.4037617E0,4.479847E-1,0E0,7.031746E-1,4.4156945E-1,0E0,8.682406E-1,5.1267433E-1,0E0,3.5024202E-1,7.0520663E-1,0E0,0E0,4.824878E-1,9.1275406E-1,5.159061E-1,0E0,4.1991186E-1,0E0,4.4520187E-1,0E0,0E0,0E0,0E0,0E0,0E0,0E0,0E0,0E0,0E0,0E0,0E0,0E0,0E0,0E0],"parents":[2147483647,0,0,1,1,2,2,3,3,4,4,5,5,6,6,7,7,8,8,11,11,12,12,13,13,15,15,16,16,17,17,22,22,23,23,25,25,26,26,28,28,29,29,31,31,32,32,35,35,36,36,37,37,39,39,41,41],"right_children":[2,4,6,8,10,12,14,16,18,-1,-1,20,22,24,-1,26,28,30,-1,-1,-1,-1,32,34,-1,36,38,-1,40,42,-1,44,46,-1,-1,48,50,52,-1,54,-1,56,-1,-1,-1,-1,-1,-1,-1,-1,-1,-1,-1,-1,-1,-1,-1],"split_conditions":[7.4894123E0,6.804E3,6.716E3,9.2E1,7.9E1,4.8E1,4.154234E1,4.15E0,7.301822E0,8.732951E-3,-5.6542375E-4,7.7209053E0,7.2E1,2.54E2,1.7022359E-3,7.17549E0,4.8E1,4.1679974E1,-1.0059489E-3,3.989662E-3,9.999441E-3,2.1078414E-3,2.01E3,6.896E3,2.305741E-3,4.1270615E1,3.83E0,2.68818E-4,7.3408356E0,6.611E3,-1.7200427E-3,6.06E3,1.41E2,1.8785687E-2,1.9483644E-3,4.1248413E1,4.1698326E1,3.55E0,-8.2254026E-4,1.6276E4,3.921716E-4,3.43E0,-3.9325532E-5,-1.7681861E-3,6.4668055E-3,-8.793349E-3,2.3234528E-3,-5.707229E-3,2.3978292E-3,-1.4230825E-2,-2.5980887E-3,-5.715498E-4,-8.1926845E-3,-6.488578E-3,-7.45482E-5,-2.346659E-4,-2.4034722E-2],"split_indices":[25,8,8,24,24,24,10,18,25,0,0,25,24,24,0,25,24,10,0,0,0,0,17,8,0,10,18,0,25,8,0,8,24,0,0,10,10,18,0,21,0,18,0,0,0,0,0,0,0,0,0,0,0,0,0,0,0],"split_type":[0,0,0,0,0,0,0,0,0,0,0,0,0,0,0,0,0,0,0,0,0,0,0,0,0,0,0,0,0,0,0,0,0,0,0,0,0,0,0,0,0,0,0,0,0,0,0,0,0,0,0,0,0,0,0,0,0],"sum_hessian":[6.98E2,4.3E2,2.68E2,3.86E2,4.4E1,1.98E2,7E1,3.38E2,4.8E1,3.6E1,8E0,1.21E2,7.7E1,6.6E1,4E0,1.61E2,1.77E2,3.3E1,1.5E1,4.4E1,7.7E1,4.4E1,3.3E1,6.1E1,5E0,9.3E1,6.8E1,6.1E1,1.16E2,2.9E1,4E0,9E0,2.4E1,5.7E1,4E0,2.6E1,6.7E1,4E1,2.8E1,8.6E1,3E1,2.8E1,1E0,3E0,6E0,2.1E1,3E0,2.2E1,4E0,5.4E1,1.3E1,1.4E1,2.6E1,7.4E1,1.2E1,1E0,2.7E1],"tree_param":{"num_deleted":"0","num_feature":"26","num_nodes":"57","size_leaf_vector":"1"}},{"base_weights":[1.6175524E-3,-7.741584E-2,4.1167754E-1,-2.114225E-1,3.89738E-2,5.02921E-1,1.348495E-1,-1.3523252E-1,-3.170062E-1,2.3594473E-1,-1.1216764E-2,3.4363295E-3,5.921327E-1,7.4076266E-3,-8.687097E-4,-2.976293E-1,-1.882944E-2,-3.6938345E-1,-7.677411E-4,9.468645E-3,-5.802468E-3,3.75432E-2,-1.47912E-1,7.87605E-4,1.9241234E-2,-2.121259E-3,-1.26396995E-2,2.8695944E-3,-9.582869E-2,1.4600592E-3,-3.9202255E-1,3.902372E-3,-8.851608E-3,-9.514774E-2,9.9056385E-2,4.0180646E-3,-1.8420245E-1,1.2242349E-3,-5.4880697E-3,-7.3216753E-3,-4.9457178E-1,1.0159462E-3,-2.1570174E-1,4.1388683E-3,-6.463814E-2,1.0428914E-3,-6.8919924E-3,-5.1054214E-3,-2.1514349E-2,1.2826385E-3,-7.881039E-3,-6.778624E-3,2.075589E-3],"categories":[],"categories_nodes":[],"categories_segments":[],"categories_sizes":[],"default_left":[0,0,0,0,0,0,0,0,0,0,0,0,0,0,0,0,0,0,0,0,0,0,0,0,0,0,0,0,0,0,0,0,0,0,0,0,0,0,0,0,0,0,0,0,0,0,0,0,0,0,0,0,0],"id":25,"left_children":[1,3,5,7,9,11,13,15,17,19,21,-1,23,-1,-1,25,27,29,-1,-1,31,33,35,-1,-1,-1,-1,-1,37,-1,39,-1,-1,41,43,-1,45,-1,-1,-1,47,-1,49,-1,51,-1,-1,-1,-1,-1,-1,-1,-1],"loss_changes":[2.3933828E1,9.736575E0,2.3813534E0,1.9274979E0,3.3793435E0,2.4424572E0,7.348222E-1,3.4322004E0,1.6702948E0,1.0577431E0,1.9136231E0,0E0,3.877945E-1,0E0,0E0,1.5192876E0,1.067057E0,1.0739403E0,0E0,0E0,1.1384716E0,1.8291967E0,9.6758425E-1,0E0,0E0,0E0,0E0,0E0,8.203176E-1,0E0,4.6568298E-1,0E0,0E0,1.1729274E0,8.474264E-1,0E0,5.666876E-1,0E0,0E0,0E0,1.9327431E0,0E0,4.115951E-1,0E0,7.166097E-1,0E0,0E0,0E0,0E0,0E0,0E0,0E0,0E0],"parents":[2147483647,0,0,1,1,2,2,3,3,4,4,5,5,6,6,7,7,8,8,9,9,10,10,12,12,15,15,16,16,17,17,20,20,21,21,22,22,28,28,30,30,33,33,34,34,36,36,40,40,42,42,44,44],"right_children":[2,4,6,8,10,12,14,16,18,20,22,-1,24,-1,-1,26,28,30,-1,-1,32,34,36,-1,-1,-1,-1,-1,38,-1,40,-1,-1,42,44,-1,46,-1,-1,-1,48,-1,50,-1,52,-1,-1,-1,-1,-1,-1,-1,-1],"split_conditions":[3E0,2E0,4.1E1,6.8E1,2.966E1,3.7E1,4.9E0,1.3E1,9E1,5.7E1,6.8E1,3.4363295E-3,2E0,7.4076266E-3,-8.687097E-4,2.42652E2,4.1E1,2.834E1,-7.677411E-4,9.468645E-3,2.9E1,1.3E1,3.2E0,7.87605E-4,1.9241234E-2,-2.121259E-3,-1.26396995E-2,2.8695944E-3,3.54851E4,1.4600592E-3,2.014E3,3.902372E-3,-8.851608E-3,6.2E0,2.62188E2,4.0180646E-3,4.9E1,1.2242349E-3,-5.4880697E-3,-7.3216753E-3,7.2E1,1.0159462E-3,1.1E1,4.1388683E-3,2.6584E2,1.0428914E-3,-6.8919924E-3,-5.1054214E-3,-2.1514349E-2,1.2826385E-3,-7.881039E-3,-6.778624E-3,2.075589E-3],"split_indices":[14,14,5,5,22,5,20,5,5,5,5,0,1,0,0,19,5,22,0,0,2,5,20,0,0,0,0,0,23,0,4,0,0,20,19,0,22,0,0,0,5,0,5,0,19,0,0,0,0,0,0,0,0],"split_type":[0,0,0,0,0,0,0,0,0,0,0,0,0,0,0,0,0,0,0,0,0,0,0,0,0,0,0,0,0,0,0,0,0,0,0,0,0,0,0,0,0,0,0,0,0,0,0,0,0,0,0,0,0],"sum_hessian":[7.2E2,6.1E2,1.1E2,2.8E2,3.3E2,7.7E1,3.3E1,1.75E2,1.05E2,6E1,2.7E2,1.8E1,5.9E1,1.8E1,1.5E1,6.7E1,1.08E2,8.7E1,1.8E1,4.6E1,1.4E1,2.04E2,6.6E1,2E0,5.7E1,2.5E1,4.2E1,4.4E1,6.4E1,4E0,8.3E1,1.3E1,1E0,6.3E1,1.41E2,5E0,6.1E1,2.5E1,3.9E1,4.4E1,3.9E1,3.4E1,2.9E1,1.2E2,2.1E1,8E0,5.3E1,2E1,1.9E1,3E0,2.6E1,7E0,1.4E1],"tree_param":{"num_deleted":"0","num_feature":"26","num_nodes":"53","size_leaf_vector":"1"}},{"base_weights":[3.0241504E-3,-1.393912E-1,2.7378783E-1,1.6341406E-1,-1.8461938E-1,4.8523128E-1,1.4640178E-1,-3.393901E-3,2.0170237E-1,-2.4928197E-1,-4.2799417E-2,5.098418E-1,-3.791152E-4,8.587865E-3,-2.4467388E-2,-2.1672414E-3,6.8842256E-3,-6.0618067E-1,-1.8469054E-1,-2.5289143E-3,1.0802835E-3,3.9061743E-3,1.716618E-2,4.2798944E-2,-1.6706176E-1,3.993018E-4,-6.253832E-1,-3.2175136E-1,-1.5433587E-1,-3.6308197E-3,3.2601482E-3,3.4648014E-4,-2.7562544E-1,-2.0949086E-2,-1.7263704E-3,-2.430519E-4,-1.2058492E-2,-5.7042716E-3,-1.398804E-3,-1.1283E-2,8.079177E-4],"categories":[],"categories_nodes":[],"categories_segments":[],"categories_sizes":[],"default_left":[0,0,0,0,0,0,0,0,0,0,0,0,0,0,0,0,0,0,0,0,0,0,0,0,0,0,0,0,0,0,0,0,0,0,0,0,0,0,0,0,0],"id":26,"left_children":[1,3,5,7,9,11,13,-1,15,17,19,21,-1,-1,23,-1,-1,25,27,-1,-1,-1,-1,29,31,-1,33,35,37,-1,-1,-1,39,-1,-1,-1,-1,-1,-1,-1,-1],"loss_changes":[2.7785639E1,6.750223E0,6.025936E0,8.8746285E-1,3.709217E0,1.149786E0,3.627145E0,0E0,3.8673472E-1,5.4868946E0,4.2491442E-1,3.8949203E-1,0E0,0E0,8.276376E-1,0E0,0E0,5.4066277E-1,5.906296E-1,0E0,0E0,0E0,0E0,6.860098E-1,5.561077E-1,0E0,4.126854E-1,6.514902E-1,5.53658E-1,0E0,0E0,0E0,4.9953902E-1,0E0,0E0,0E0,0E0,0E0,0E0,0E0,0E0],"parents":[2147483647,0,0,1,1,2,2,3,3,4,4,5,5,6,6,8,8,9,9,10,10,11,11,14,14,17,17,18,18,23,23,24,24,26,26,27,27,28,28,32,32],"right_children":[2,4,6,8,10,12,14,-1,16,18,20,22,-1,-1,24,-1,-1,26,28,-1,-1,-1,-1,30,32,-1,34,36,38,-1,-1,-1,40,-1,-1,-1,-1,-1,-1,-1,-1],"split_conditions":[1.944E3,-7.323022E1,-7.321698E1,1.016E3,1.5E3,2.015E3,4.4E1,-3.393901E-3,1.86E3,1.919E3,2.2E1,1.75E0,-3.791152E-4,8.587865E-3,1E1,-2.1672414E-3,6.8842256E-3,1.834E3,9.46E2,-2.5289143E-3,1.0802835E-3,3.9061743E-3,1.716618E-2,4E0,-7.2607666E1,3.993018E-4,1.1E1,2.009E3,2.017E3,-3.6308197E-3,3.2601482E-3,3.4648014E-4,1.3E1,-2.0949086E-2,-1.7263704E-3,-2.430519E-4,-1.2058492E-2,-5.7042716E-3,-1.398804E-3,-1.1283E-2,8.079177E-4],"split_indices":[15,9,9,15,15,11,24,0,11,11,2,12,0,0,1,0,0,11,15,0,0,0,0,1,9,0,1,4,4,0,0,0,2,0,0,0,0,0,0,0,0],"split_type":[0,0,0,0,0,0,0,0,0,0,0,0,0,0,0,0,0,0,0,0,0,0,0,0,0,0,0,0,0,0,0,0,0,0,0,0,0,0,0,0,0],"sum_hessian":[7.02E2,4.63E2,2.39E2,5.7E1,4.06E2,8E1,1.59E2,5E0,5.2E1,2.74E2,1.32E2,7.6E1,4E0,8.9E1,7E1,1E0,5.1E1,3E1,2.44E2,8.9E1,4.3E1,9E0,6.7E1,5.2E1,1.8E1,1E0,2.9E1,2.8E1,2.16E2,1.2E1,4E1,1E1,8E0,2.6E1,3E0,6E0,2.2E1,1.71E2,4.5E1,5E0,3E0],"tree_param":{"num_deleted":"0","num_feature":"26","num_nodes":"41","size_leaf_vector":"1"}},{"base_weights":[1.0994896E-2,-1.3907854E-1,2.833562E-1,2.1284905E-1,-1.8461268E-1,4.7405115E-1,1.632219E-1,-7.180394E-4,8.640729E-3,-2.5258583E-1,-3.735832E-2,1.5498778E-2,3.6213943E-4,3.7473723E-2,2.3728956E-1,-2.1224102E-1,-1.9828215E-2,2.5107254E-5,-4.795327E-3,6.2257634E-3,-3.2253206E-2,7.984847E-3,-8.065898E-6,-3.9978445E-1,-1.7563148E-1,-9.59937E-2,4.358389E-3,-4.2480415E-1,1.5656641E-3,-2.1975242E-1,-2.5025473E-3,-5.933404E-3,-3.6190697E-6,8.945026E-4,-1.4137061E-2,-1.0914641E-2,-5.3727687E-3],"categories":[],"categories_nodes":[],"categories_segments":[],"categories_sizes":[],"default_left":[0,0,0,0,0,0,0,0,0,0,0,0,0,0,0,0,0,0,0,0,0,0,0,1,0,0,0,0,0,0,0,0,0,0,0,0,0],"id":27,"left_children":[1,3,5,7,9,11,13,-1,-1,15,17,-1,-1,19,21,23,-1,-1,-1,-1,25,-1,-1,27,29,31,-1,33,-1,35,-1,-1,-1,-1,-1,-1,-1],"loss_changes":[2.9851513E1,7.9195824E0,5.2190456E0,8.7013435E-1,4.139207E0,5.6028175E-1,1.5314107E0,0E0,0E0,3.0720272E0,6.266417E-1,0E0,0E0,8.9164984E-1,3.5979986E-1,1.2215099E0,0E0,0E0,0E0,0E0,7.745694E-1,0E0,0E0,6.148057E-1,8.867445E-1,4.29274E-1,0E0,4.50315E-1,0E0,4.8150492E-1,0E0,0E0,0E0,0E0,0E0,0E0,0E0],"parents":[2147483647,0,0,1,1,2,2,3,3,4,4,5,5,6,6,9,9,10,10,13,13,14,14,15,15,20,20,23,23,24,24,25,25,27,27,29,29],"right_children":[2,4,6,8,10,12,14,-1,-1,16,18,-1,-1,20,22,24,-1,-1,-1,-1,26,-1,-1,28,30,32,-1,34,-1,36,-1,-1,-1,-1,-1,-1,-1],"split_conditions":[1.944E3,-7.323352E1,-7.321698E1,-7.333138E1,1.497E3,2.016E3,1.968E3,-7.180394E-4,8.640729E-3,-7.207747E1,3.91198E4,1.5498778E-2,3.6213943E-4,3E1,-7.232504E1,1.925E3,-1.9828215E-2,2.5107254E-5,-4.795327E-3,6.2257634E-3,5.19E0,7.984847E-3,-8.065898E-6,1.9132E4,4.51E0,1.931E3,4.358389E-3,3.56E0,1.5656641E-3,1.04E3,-2.5025473E-3,-5.933404E-3,-3.6190697E-6,8.945026E-4,-1.4137061E-2,-1.0914641E-2,-5.3727687E-3],"split_indices":[15,9,9,9,15,11,11,0,0,9,23,0,0,16,9,11,0,0,0,0,18,0,0,21,18,11,0,18,0,15,0,0,0,0,0,0,0],"split_type":[0,0,0,0,0,0,0,0,0,0,0,0,0,0,0,0,0,0,0,0,0,0,0,0,0,0,0,0,0,0,0,0,0,0,0,0,0],"sum_hessian":[7.12E2,4.62E2,2.5E2,4.9E1,4.13E2,8.6E1,1.64E2,1.1E1,3.8E1,2.78E2,1.35E2,8.3E1,3E0,6.6E1,9.8E1,2.64E2,1.4E1,1.08E2,2.7E1,1.5E1,5.1E1,9.2E1,6E0,2.8E1,2.36E2,4E1,1.1E1,2.7E1,1E0,1.54E2,8.2E1,1.6E1,2.4E1,1E0,2.6E1,2.9E1,1.25E2],"tree_param":{"num_deleted":"0","num_feature":"26","num_nodes":"37","size_leaf_vector":"1"}},{"base_weights":[-5.166506E-4,-1.8766618E-1,1.8870653E-1,-6.0280013E-1,-1.4226475E-1,8.348659E-2,4.763368E-1,1.1121536E-3,-6.5394235E-1,-1.8524808E-1,6.709869E-2,-4.5824133E-2,1.8337595E-1,1.5870096E-2,1.6119902E-3,-6.7841715E-1,2.7179217E-4,-2.1844389E-1,-5.839569E-2,-3.461877E-3,1.020456E-1,4.412569E-3,-1.1798151E-1,7.0430346E-2,9.134355E-3,-1.7128511E-3,-2.3142055E-2,-2.7689928E-1,-1.17264636E-1,-4.040255E-3,3.7580004E-4,-1.323563E-3,4.417129E-3,-2.1482925E-1,7.85924E-3,1.0236046E-1,-1.15490675E-1,-2.1569014E-3,-9.642419E-3,1.427997E-5,-1.6656332E-1,-1.1690886E-3,-2.9146934E-1,-3.2176643E-3,2.84112E-3,4.6976354E-5,5.0532543E-3,1.2362837E-3,-7.2838035E-3,-6.0907616E-3,1.7452744E-3,9.0032275E-4,-1.0729479E-2],"categories":[],"categories_nodes":[],"categories_segments":[],"categories_sizes":[],"default_left":[0,0,0,0,0,0,0,0,0,0,0,0,0,0,0,0,0,0,0,0,0,0,0,0,0,0,0,0,0,0,0,0,0,0,0,0,0,0,0,0,0,0,0,0,0,0,0,0,0,0,0,0,0],"id":28,"left_children":[1,3,5,7,9,11,13,-1,15,17,19,21,23,-1,-1,25,-1,27,29,-1,31,-1,33,35,-1,-1,-1,37,39,-1,-1,-1,-1,41,43,45,47,-1,-1,-1,49,-1,51,-1,-1,-1,-1,-1,-1,-1,-1,-1,-1],"loss_changes":[2.5874933E1,6.1231604E0,1.062494E1,1.3008528E0,3.2056575E0,3.6606195E0,7.08107E-1,0E0,5.621748E-1,1.0909166E0,5.057919E-1,1.8636194E0,1.6742473E0,0E0,0E0,5.8313465E-1,0E0,1.0238285E0,3.6350948E-1,0E0,3.6967093E-1,0E0,1.2019601E0,6.34676E-1,0E0,0E0,0E0,5.6178284E-1,5.7132626E-1,0E0,0E0,0E0,0E0,6.548238E-1,5.4166895E-1,4.5750308E-1,3.8785383E-1,0E0,0E0,0E0,4.8508537E-1,0E0,6.4228296E-1,0E0,0E0,0E0,0E0,0E0,0E0,0E0,0E0,0E0,0E0],"parents":[2147483647,0,0,1,1,2,2,3,3,4,4,5,5,6,6,8,8,9,9,10,10,11,11,12,12,15,15,17,17,18,18,20,20,22,22,23,23,27,27,28,28,33,33,34,34,35,35,36,36,40,40,42,42],"right_children":[2,4,6,8,10,12,14,-1,16,18,20,22,24,-1,-1,26,-1,28,30,-1,32,-1,34,36,-1,-1,-1,38,40,-1,-1,-1,-1,42,44,46,48,-1,-1,-1,50,-1,52,-1,-1,-1,-1,-1,-1,-1,-1,-1,-1],"split_conditions":[7.3543625E0,1.909E3,6.615E3,3.67E0,6.611E3,1.963E3,1.83E2,1.1121536E-3,2.9E1,7.235619E0,6.9246125E0,2.01E3,7.805882E0,1.5870096E-2,1.6119902E-3,1.834E3,2.7179217E-4,4.37E0,1.953E3,-3.461877E-3,3.57E0,4.412569E-3,2.016E3,1.2E1,9.134355E-3,-1.7128511E-3,-2.3142055E-2,3.57E0,4.7E0,-4.040255E-3,3.7580004E-4,-1.323563E-3,4.417129E-3,6.3E1,3.76E0,7.558517E0,7.702556E0,-2.1569014E-3,-9.642419E-3,1.427997E-5,1.978E3,-1.1690886E-3,3.5E0,-3.2176643E-3,2.84112E-3,4.6976354E-5,5.0532543E-3,1.2362837E-3,-7.2838035E-3,-6.0907616E-3,1.7452744E-3,9.0032275E-4,-1.0729479E-2],"split_indices":[25,11,8,18,8,11,24,0,2,25,25,17,25,0,0,11,0,18,11,0,18,0,17,1,0,0,0,18,20,0,0,0,0,24,18,25,25,0,0,0,11,0,18,0,0,0,0,0,0,0,0,0,0],"split_type":[0,0,0,0,0,0,0,0,0,0,0,0,0,0,0,0,0,0,0,0,0,0,0,0,0,0,0,0,0,0,0,0,0,0,0,0,0,0,0,0,0,0,0,0,0,0,0,0,0,0,0,0,0],"sum_hessian":[7.12E2,3.58E2,3.54E2,2.4E1,3.34E2,2.68E2,8.6E1,2E0,2.2E1,2.78E2,5.6E1,1.19E2,1.49E2,8E1,6E0,2.1E1,1E0,2.15E2,6.3E1,6E0,5E1,3.1E1,8.8E1,7.9E1,7E1,3E0,1.8E1,1.26E2,8.9E1,2.8E1,3.5E1,1E1,4E1,4.6E1,4.2E1,7.1E1,8E0,1.8E1,1.08E2,2.9E1,6E1,1.8E1,2.8E1,1.7E1,2.5E1,2.9E1,4.2E1,6E0,2E0,5.5E1,5E0,4E0,2.4E1],"tree_param":{"num_deleted":"0","num_feature":"26","num_nodes":"53","size_leaf_vector":"1"}},{"base_weights":[-4.3767425E-3,-1.2906417E-1,3.1057945E-1,-4.395239E-1,-7.307801E-2,1.942226E-1,4.5918423E-1,-1.0823713E-1,-5.784914E-1,-1.8705733E-1,3.657053E-2,-3.5322018E-3,2.2194321E-1,4.7140846E-1,-2.1259424E-4,1.6906154E-3,-2.0564917E-1,-6.03886E-1,-1.2435719E-3,4.732172E-3,-2.0943001E-1,2.7180925E-1,-8.348771E-3,-4.4640875E-3,6.1348127E-3,-1.2257202E-3,7.449921E-3,4.8532462E-1,8.3506195E-4,1.3628993E-3,-8.322808E-3,-2.3116113E-3,-2.0194832E-2,-2.5929925E-1,-8.429483E-2,-1.21336045E-4,9.686896E-3,2.3840344E-2,-7.600921E-3,1.5661065E-2,-3.4237053E-4,-3.1440774E-1,-1.2492267E-1,-8.753156E-4,-5.8414396E-3,-9.119265E-2,1.4953676E-3,-5.259278E-3,-1.2774115E-2,9.624203E-4,-5.727738E-3,-5.019161E-3,1.2828046E-3],"categories":[],"categories_nodes":[],"categories_segments":[],"categories_sizes":[],"default_left":[0,0,0,0,0,0,0,0,1,0,0,1,0,1,0,0,0,0,0,0,0,0,1,0,0,0,0,0,0,0,0,0,0,0,0,0,0,0,0,0,0,0,0,0,0,0,0,0,0,0,0,0,0],"id":29,"left_children":[1,3,5,7,9,11,13,15,17,19,21,23,25,27,-1,-1,29,31,-1,-1,33,35,37,-1,-1,-1,-1,39,-1,-1,-1,-1,-1,41,43,-1,-1,45,-1,-1,-1,47,49,-1,-1,51,-1,-1,-1,-1,-1,-1,-1],"loss_changes":[2.8426548E1,8.70964E0,2.7182693E0,2.9759264E0,5.69191E0,7.272539E-1,5.0400543E-1,6.4208746E-1,4.9614525E-1,1.9626017E0,2.5289893E0,9.35784E-1,4.628806E-1,3.8474274E-1,0E0,0E0,4.3177825E-1,4.0371513E-1,0E0,0E0,1.1210833E0,3.6113048E-1,1.601927E0,0E0,0E0,0E0,0E0,3.4942245E-1,0E0,0E0,0E0,0E0,0E0,7.245512E-1,3.7278825E-1,0E0,0E0,5.514815E-1,0E0,0E0,0E0,6.628885E-1,5.5255634E-1,0E0,0E0,3.7017062E-1,0E0,0E0,0E0,0E0,0E0,0E0,0E0],"parents":[2147483647,0,0,1,1,2,2,3,3,4,4,5,5,6,6,7,7,8,8,9,9,10,10,11,11,12,12,13,13,16,16,17,17,20,20,21,21,22,22,27,27,33,33,34,34,37,37,41,41,42,42,45,45],"right_children":[2,4,6,8,10,12,14,16,18,20,22,24,26,28,-1,-1,30,32,-1,-1,34,36,38,-1,-1,-1,-1,40,-1,-1,-1,-1,-1,42,44,-1,-1,46,-1,-1,-1,48,50,-1,-1,52,-1,-1,-1,-1,-1,-1,-1],"split_conditions":[7.6582274E0,1.921E3,7.999343E0,3.3E1,7.2100797E0,1.921E3,2.018E3,4.1855E1,4.9E1,2.627E1,2.919E1,2.545E1,3.43E0,3.993E1,-2.1259424E-4,1.6906154E-3,2.009E3,3.67E0,-1.2435719E-3,4.732172E-3,4.43E0,3.65E0,3.622E1,-4.4640875E-3,6.1348127E-3,-1.2257202E-3,7.449921E-3,1.05E2,8.3506195E-4,1.3628993E-3,-8.322808E-3,-2.3116113E-3,-2.0194832E-2,3.72154E4,1.53E2,-1.21336045E-4,9.686896E-3,3.67E0,-7.600921E-3,1.5661065E-2,-3.4237053E-4,3.949E1,3E0,-8.753156E-4,-5.8414396E-3,1.96E3,1.4953676E-3,-5.259278E-3,-1.2774115E-2,9.624203E-4,-5.727738E-3,-5.019161E-3,1.2828046E-3],"split_indices":[25,11,25,16,25,11,11,22,22,22,22,22,18,22,0,0,17,18,0,0,18,18,22,0,0,0,0,16,0,0,0,0,0,23,6,0,0,18,0,0,0,22,3,0,0,11,0,0,0,0,0,0,0],"split_type":[0,0,0,0,0,0,0,0,0,0,0,0,0,0,0,0,0,0,0,0,0,0,0,0,0,0,0,0,0,0,0,0,0,0,0,0,0,0,0,0,0,0,0,0,0,0,0,0,0,0,0,0,0],"sum_hessian":[7.05E2,5.09E2,1.96E2,6.8E1,4.41E2,1.22E2,7.4E1,2.5E1,4.3E1,2.13E2,2.28E2,1.6E1,1.06E2,7.2E1,2E0,1.1E1,1.4E1,4E1,3E0,1E1,2.03E2,2.9E1,1.99E2,1.1E1,5E0,4E0,1.02E2,6.9E1,3E0,3E0,1.1E1,4E0,3.6E1,1.38E2,6.5E1,4E0,2.5E1,1.82E2,1.7E1,6.8E1,1E0,8.9E1,4.9E1,4.9E1,1.6E1,2.6E1,1.56E2,4.3E1,4.6E1,1.4E1,3.5E1,1.6E1,1E1],"tree_param":{"num_deleted":"0","num_feature":"26","num_nodes":"53","size_leaf_vector":"1"}},{"base_weights":[-1.1056603E-2,-2.0910095E-1,1.4611465E-1,7.884703E-2,-2.4760471E-1,4.0405756E-1,4.5907985E-2,4.948599E-3,-3.6144098E-3,-2.0422253E-1,-4.882495E-1,2.4734692E-1,1.7418887E-2,-9.959651E-3,2.0899731E-1,-3.7067515E-1,-1.5437967E-1,-5.562456E-1,-5.3838117E-4,-2.1516588E-3,8.284552E-3,5.4971E-2,-1.3307476E-1,-5.7139993E-3,2.5250563E-1,-4.7363043E-1,-9.481081E-4,5.3409737E-2,-1.8167748E-1,-1.9121006E-2,-8.442427E-4,-8.791261E-2,1.104723E-1,1.9809036E-3,-1.9106203E-1,1.3972269E-1,1.1185019E-2,-1.5734778E-4,-5.7067394E-1,-5.2363207E-3,4.071396E-3,-2.1730411E-1,-3.2839283E-2,-5.44276E-3,8.3649997E-4,-4.4893306E-3,1.3522114E-1,-1.6903246E-3,-2.710349E-1,5.8476734E-3,-1.3940027E-3,-1.7804148E-4,-1.9219788E-2,-7.4392105E-3,-6.2153704E-4,-4.457603E-3,1.3904817E-3,5.2014594E-3,-1.3198501E-3,-1.5106666E-4,-1.0046406E-2],"categories":[],"categories_nodes":[],"categories_segments":[],"categories_sizes":[],"default_left":[0,0,0,1,0,0,0,0,0,0,0,0,0,0,0,0,0,0,0,0,0,0,0,0,0,0,0,0,0,0,0,0,0,0,0,0,0,0,0,0,0,0,0,0,0,0,0,0,0,0,0,0,0,0,0,0,0,0,0,0,0],"id":30,"left_children":[1,3,5,7,9,11,13,-1,-1,15,17,19,-1,21,23,25,27,29,-1,-1,-1,31,33,-1,35,37,-1,39,41,-1,-1,43,45,-1,47,49,-1,-1,51,-1,-1,53,55,-1,-1,-1,57,-1,59,-1,-1,-1,-1,-1,-1,-1,-1,-1,-1,-1,-1],"loss_changes":[2.2831224E1,3.7780428E0,1.0407135E1,8.3730686E-1,2.0797176E0,1.2975826E0,2.8014154E0,0E0,0E0,1.625886E0,1.1083498E0,4.6751308E-1,0E0,1.9574691E0,1.7491536E0,1.739459E0,1.3176069E0,6.3365555E-1,0E0,0E0,0E0,1.3700061E0,1.0668839E0,0E0,3.760743E-1,1.8079414E0,0E0,7.247323E-1,9.5857143E-1,0E0,0E0,5.218713E-1,9.282048E-1,0E0,6.076803E-1,4.8544377E-1,0E0,0E0,6.162863E-1,0E0,0E0,4.7287226E-1,4.5535198E-1,0E0,0E0,0E0,6.401093E-1,0E0,4.7186327E-1,0E0,0E0,0E0,0E0,0E0,0E0,0E0,0E0,0E0,0E0,0E0,0E0],"parents":[2147483647,0,0,1,1,2,2,3,3,4,4,5,5,6,6,9,9,10,10,11,11,13,13,14,14,15,15,16,16,17,17,21,21,22,22,24,24,25,25,27,27,28,28,31,31,32,32,34,34,35,35,38,38,41,41,42,42,46,46,48,48],"right_children":[2,4,6,8,10,12,14,-1,-1,16,18,20,-1,22,24,26,28,30,-1,-1,-1,32,34,-1,36,38,-1,40,42,-1,-1,44,46,-1,48,50,-1,-1,52,-1,-1,54,56,-1,-1,-1,58,-1,60,-1,-1,-1,-1,-1,-1,-1,-1,-1,-1,-1,-1],"split_conditions":[7.3138866E0,-7.323022E1,-7.321698E1,2.677E1,-7.212231E1,7.9116907E0,7.852439E0,4.948599E-3,-3.6144098E-3,-7.313663E1,4.85E0,3.42E0,1.7418887E-2,6E1,4.122384E1,4.1217094E1,4.1267673E1,7.1708884E0,-5.3838117E-4,-2.1516588E-3,8.284552E-3,-7.292294E1,-7.300851E1,